{"learner":{"attributes":{"scikit_learn":"{\"_estimator_type\": \"classifier\"}"},"feature_names":["N","P","K","temperature","humidity","ph","rainfall","NPK_sum","NP_ratio"],"feature_types":["int","int","int","float","float","float","float","int","float"],"gradient_booster":{"model":{"cats":{"enc":[],"feature_segments":[],"sorted_idx":[]},"gbtree_model_param":{"num_parallel_tree":"1","num_trees":"6600"},"iteration_indptr":[0,22,44,66,88,110,132,154,176,198,220,242,264,286,308,330,352,374,396,418,440,462,484,506,528,550,572,594,616,638,660,682,704,726,748,770,792,814,836,858,880,902,924,946,968,990,1012,1034,1056,1078,1100,1122,1144,1166,1188,1210,1232,1254,1276,1298,1320,1342,1364,1386,1408,1430,1452,1474,1496,1518,1540,1562,1584,1606,1628,1650,1672,1694,1716,1738,1760,1782,1804,1826,1848,1870,1892,1914,1936,1958,1980,2002,2024,2046,2068,2090,2112,2134,2156,2178,2200,2222,2244,2266,2288,2310,2332,2354,2376,2398,2420,2442,2464,2486,2508,2530,2552,2574,2596,2618,2640,2662,2684,2706,2728,2750,2772,2794,2816,2838,2860,2882,2904,2926,2948,2970,2992,3014,3036,3058,3080,3102,3124,3146,3168,3190,3212,3234,3256,3278,3300,3322,3344,3366,3388,3410,3432,3454,3476,3498,3520,3542,3564,3586,3608,3630,3652,3674,3696,3718,3740,3762,3784,3806,3828,3850,3872,3894,3916,3938,3960,3982,4004,4026,4048,4070,4092,4114,4136,4158,4180,4202,4224,4246,4268,4290,4312,4334,4356,4378,4400,4422,4444,4466,4488,4510,4532,4554,4576,4598,4620,4642,4664,4686,4708,4730,4752,4774,4796,4818,4840,4862,4884,4906,4928,4950,4972,4994,5016,5038,5060,5082,5104,5126,5148,5170,5192,5214,5236,5258,5280,5302,5324,5346,5368,5390,5412,5434,5456,5478,5500,5522,5544,5566,5588,5610,5632,5654,5676,5698,5720,5742,5764,5786,5808,5830,5852,5874,5896,5918,5940,5962,5984,6006,6028,6050,6072,6094,6116,6138,6160,6182,6204,6226,6248,6270,6292,6314,6336,6358,6380,6402,6424,6446,6468,6490,6512,6534,6556,6578,6600],"tree_info":[0,1,2,3,4,5,6,7,8,9,10,11,12,13,14,15,16,17,18,19,20,21,0,1,2,3,4,5,6,7,8,9,10,11,12,13,14,15,16,17,18,19,20,21,0,1,2,3,4,5,6,7,8,9,10,11,12,13,14,15,16,17,18,19,20,21,0,1,2,3,4,5,6,7,8,9,10,11,12,13,14,15,16,17,18,19,20,21,0,1,2,3,4,5,6,7,8,9,10,11,12,13,14,15,16,17,18,19,20,21,0,1,2,3,4,5,6,7,8,9,10,11,12,13,14,15,16,17,18,19,20,21,0,1,2,3,4,5,6,7,8,9,10,11,12,13,14,15,16,17,18,19,20,21,0,1,2,3,4,5,6,7,8,9,10,11,12,13,14,15,16,17,18,19,20,21,0,1,2,3,4,5,6,7,8,9,10,11,12,13,14,15,16,17,18,19,20,21,0,1,2,3,4,5,6,7,8,9,10,11,12,13,14,15,16,17,18,19,20,21,0,1,2,3,4,5,6,7,8,9,10,11,12,13,14,15,16,17,18,19,20,21,0,1,2,3,4,5,6,7,8,9,10,11,12,13,14,15,16,17,18,19,20,21,0,1,2,3,4,5,6,7,8,9,10,11,12,13,14,15,16,17,18,19,20,21,0,1,2,3,4,5,6,7,8,9,10,11,12,13,14,15,16,17,18,19,20,21,0,1,2,3,4,5,6,7,8,9,10,11,12,13,14,15,16,17,18,19,20,21,0,1,2,3,4,5,6,7,8,9,10,11,12,13,14,15,16,17,18,19,20,21,0,1,2,3,4,5,6,7,8,9,10,11,12,13,14,15,16,17,18,19,20,21,0,1,2,3,4,5,6,7,8,9,10,11,12,13,14,15,16,17,18,19,20,21,0,1,2,3,4,5,6,7,8,9,10,11,12,13,14,15,16,17,18,19,20,21,0,1,2,3,4,5,6,7,8,9,10,11,12,13,14,15,16,17,18,19,20,21,0,1,2,3,4,5,6,7,8,9,10,11,12,13,14,15,16,17,18,19,20,21,0,1,2,3,4,5,6,7,8,9,10,11,12,13,14,15,16,17,18,19,20,21,0,1,2,3,4,5,6,7,8,9,10,11,12,13,14,15,16,17,18,19,20,21,0,1,2,3,4,5,6,7,8,9,10,11,12,13,14,15,16,17,18,19,20,21,0,1,2,3,4,5,6,7,8,9,10,11,12,13,14,15,16,17,18,19,20,21,0,1,2,3,4,5,6,7,8,9,10,11,12,13,14,15,16,17,18,19,20,21,0,1,2,3,4,5,6,7,8,9,10,11,12,13,14,15,16,17,18,19,20,21,0,1,2,3,4,5,6,7,8,9,10,11,12,13,14,15,16,17,18,19,20,21,0,1,2,3,4,5,6,7,8,9,10,11,12,13,14,15,16,17,18,19,20,21,0,1,2,3,4,5,6,7,8,9,10,11,12,13,14,15,16,17,18,19,20,21,0,1,2,3,4,5,6,7,8,9,10,11,12,13,14,15,16,17,18,19,20,21,0,1,2,3,4,5,6,7,8,9,10,11,12,13,14,15,16,17,18,19,20,21,0,1,2,3,4,5,6,7,8,9,10,11,12,13,14,15,16,17,18,19,20,21,0,1,2,3,4,5,6,7,8,9,10,11,12,13,14,15,16,17,18,19,20,21,0,1,2,3,4,5,6,7,8,9,10,11,12,13,14,15,16,17,18,19,20,21,0,1,2,3,4,5,6,7,8,9,10,11,12,13,14,15,16,17,18,19,20,21,0,1,2,3,4,5,6,7,8,9,10,11,12,13,14,15,16,17,18,19,20,21,0,1,2,3,4,5,6,7,8,9,10,11,12,13,14,15,16,17,18,19,20,21,0,1,2,3,4,5,6,7,8,9,10,11,12,13,14,15,16,17,18,19,20,21,0,1,2,3,4,5,6,7,8,9,10,11,12,13,14,15,16,17,18,19,20,21,0,1,2,3,4,5,6,7,8,9,10,11,12,13,14,15,16,17,18,19,20,21,0,1,2,3,4,5,6,7,8,9,10,11,12,13,14,15,16,17,18,19,20,21,0,1,2,3,4,5,6,7,8,9,10,11,12,13,14,15,16,17,18,19,20,21,0,1,2,3,4,5,6,7,8,9,10,11,12,13,14,15,16,17,18,19,20,21,0,1,2,3,4,5,6,7,8,9,10,11,12,13,14,15,16,17,18,19,20,21,0,1,2,3,4,5,6,7,8,9,10,11,12,13,14,15,16,17,18,19,20,21,0,1,2,3,4,5,6,7,8,9,10,11,12,13,14,15,16,17,18,19,20,21,0,1,2,3,4,5,6,7,8,9,10,11,12,13,14,15,16,17,18,19,20,21,0,1,2,3,4,5,6,7,8,9,10,11,12,13,14,15,16,17,18,19,20,21,0,1,2,3,4,5,6,7,8,9,10,11,12,13,14,15,16,17,18,19,20,21,0,1,2,3,4,5,6,7,8,9,10,11,12,13,14,15,16,17,18,19,20,21,0,1,2,3,4,5,6,7,8,9,10,11,12,13,14,15,16,17,18,19,20,21,0,1,2,3,4,5,6,7,8,9,10,11,12,13,14,15,16,17,18,19,20,21,0,1,2,3,4,5,6,7,8,9,10,11,12,13,14,15,16,17,18,19,20,21,0,1,2,3,4,5,6,7,8,9,10,11,12,13,14,15,16,17,18,19,20,21,0,1,2,3,4,5,6,7,8,9,10,11,12,13,14,15,16,17,18,19,20,21,0,1,2,3,4,5,6,7,8,9,10,11,12,13,14,15,16,17,18,19,20,21,0,1,2,3,4,5,6,7,8,9,10,11,12,13,14,15,16,17,18,19,20,21,0,1,2,3,4,5,6,7,8,9,10,11,12,13,14,15,16,17,18,19,20,21,0,1,2,3,4,5,6,7,8,9,10,11,12,13,14,15,16,17,18,19,20,21,0,1,2,3,4,5,6,7,8,9,10,11,12,13,14,15,16,17,18,19,20,21,0,1,2,3,4,5,6,7,8,9,10,11,12,13,14,15,16,17,18,19,20,21,0,1,2,3,4,5,6,7,8,9,10,11,12,13,14,15,16,17,18,19,20,21,0,1,2,3,4,5,6,7,8,9,10,11,12,13,14,15,16,17,18,19,20,21,0,1,2,3,4,5,6,7,8,9,10,11,12,13,14,15,16,17,18,19,20,21,0,1,2,3,4,5,6,7,8,9,10,11,12,13,14,15,16,17,18,19,20,21,0,1,2,3,4,5,6,7,8,9,10,11,12,13,14,15,16,17,18,19,20,21,0,1,2,3,4,5,6,7,8,9,10,11,12,13,14,15,16,17,18,19,20,21,0,1,2,3,4,5,6,7,8,9,10,11,12,13,14,15,16,17,18,19,20,21,0,1,2,3,4,5,6,7,8,9,10,11,12,13,14,15,16,17,18,19,20,21,0,1,2,3,4,5,6,7,8,9,10,11,12,13,14,15,16,17,18,19,20,21,0,1,2,3,4,5,6,7,8,9,10,11,12,13,14,15,16,17,18,19,20,21,0,1,2,3,4,5,6,7,8,9,10,11,12,13,14,15,16,17,18,19,20,21,0,1,2,3,4,5,6,7,8,9,10,11,12,13,14,15,16,17,18,19,20,21,0,1,2,3,4,5,6,7,8,9,10,11,12,13,14,15,16,17,18,19,20,21,0,1,2,3,4,5,6,7,8,9,10,11,12,13,14,15,16,17,18,19,20,21,0,1,2,3,4,5,6,7,8,9,10,11,12,13,14,15,16,17,18,19,20,21,0,1,2,3,4,5,6,7,8,9,10,11,12,13,14,15,16,17,18,19,20,21,0,1,2,3,4,5,6,7,8,9,10,11,12,13,14,15,16,17,18,19,20,21,0,1,2,3,4,5,6,7,8,9,10,11,12,13,14,15,16,17,18,19,20,21,0,1,2,3,4,5,6,7,8,9,10,11,12,13,14,15,16,17,18,19,20,21,0,1,2,3,4,5,6,7,8,9,10,11,12,13,14,15,16,17,18,19,20,21,0,1,2,3,4,5,6,7,8,9,10,11,12,13,14,15,16,17,18,19,20,21,0,1,2,3,4,5,6,7,8,9,10,11,12,13,14,15,16,17,18,19,20,21,0,1,2,3,4,5,6,7,8,9,10,11,12,13,14,15,16,17,18,19,20,21,0,1,2,3,4,5,6,7,8,9,10,11,12,13,14,15,16,17,18,19,20,21,0,1,2,3,4,5,6,7,8,9,10,11,12,13,14,15,16,17,18,19,20,21,0,1,2,3,4,5,6,7,8,9,10,11,12,13,14,15,16,17,18,19,20,21,0,1,2,3,4,5,6,7,8,9,10,11,12,13,14,15,16,17,18,19,20,21,0,1,2,3,4,5,6,7,8,9,10,11,12,13,14,15,16,17,18,19,20,21,0,1,2,3,4,5,6,7,8,9,10,11,12,13,14,15,16,17,18,19,20,21,0,1,2,3,4,5,6,7,8,9,10,11,12,13,14,15,16,17,18,19,20,21,0,1,2,3,4,5,6,7,8,9,10,11,12,13,14,15,16,17,18,19,20,21,0,1,2,3,4,5,6,7,8,9,10,11,12,13,14,15,16,17,18,19,20,21,0,1,2,3,4,5,6,7,8,9,10,11,12,13,14,15,16,17,18,19,20,21,0,1,2,3,4,5,6,7,8,9,10,11,12,13,14,15,16,17,18,19,20,21,0,1,2,3,4,5,6,7,8,9,10,11,12,13,14,15,16,17,18,19,20,21,0,1,2,3,4,5,6,7,8,9,10,11,12,13,14,15,16,17,18,19,20,21,0,1,2,3,4,5,6,7,8,9,10,11,12,13,14,15,16,17,18,19,20,21,0,1,2,3,4,5,6,7,8,9,10,11,12,13,14,15,16,17,18,19,20,21,0,1,2,3,4,5,6,7,8,9,10,11,12,13,14,15,16,17,18,19,20,21,0,1,2,3,4,5,6,7,8,9,10,11,12,13,14,15,16,17,18,19,20,21,0,1,2,3,4,5,6,7,8,9,10,11,12,13,14,15,16,17,18,19,20,21,0,1,2,3,4,5,6,7,8,9,10,11,12,13,14,15,16,17,18,19,20,21,0,1,2,3,4,5,6,7,8,9,10,11,12,13,14,15,16,17,18,19,20,21,0,1,2,3,4,5,6,7,8,9,10,11,12,13,14,15,16,17,18,19,20,21,0,1,2,3,4,5,6,7,8,9,10,11,12,13,14,15,16,17,18,19,20,21,0,1,2,3,4,5,6,7,8,9,10,11,12,13,14,15,16,17,18,19,20,21,0,1,2,3,4,5,6,7,8,9,10,11,12,13,14,15,16,17,18,19,20,21,0,1,2,3,4,5,6,7,8,9,10,11,12,13,14,15,16,17,18,19,20,21,0,1,2,3,4,5,6,7,8,9,10,11,12,13,14,15,16,17,18,19,20,21,0,1,2,3,4,5,6,7,8,9,10,11,12,13,14,15,16,17,18,19,20,21,0,1,2,3,4,5,6,7,8,9,10,11,12,13,14,15,16,17,18,19,20,21,0,1,2,3,4,5,6,7,8,9,10,11,12,13,14,15,16,17,18,19,20,21,0,1,2,3,4,5,6,7,8,9,10,11,12,13,14,15,16,17,18,19,20,21,0,1,2,3,4,5,6,7,8,9,10,11,12,13,14,15,16,17,18,19,20,21,0,1,2,3,4,5,6,7,8,9,10,11,12,13,14,15,16,17,18,19,20,21,0,1,2,3,4,5,6,7,8,9,10,11,12,13,14,15,16,17,18,19,20,21,0,1,2,3,4,5,6,7,8,9,10,11,12,13,14,15,16,17,18,19,20,21,0,1,2,3,4,5,6,7,8,9,10,11,12,13,14,15,16,17,18,19,20,21,0,1,2,3,4,5,6,7,8,9,10,11,12,13,14,15,16,17,18,19,20,21,0,1,2,3,4,5,6,7,8,9,10,11,12,13,14,15,16,17,18,19,20,21,0,1,2,3,4,5,6,7,8,9,10,11,12,13,14,15,16,17,18,19,20,21,0,1,2,3,4,5,6,7,8,9,10,11,12,13,14,15,16,17,18,19,20,21,0,1,2,3,4,5,6,7,8,9,10,11,12,13,14,15,16,17,18,19,20,21,0,1,2,3,4,5,6,7,8,9,10,11,12,13,14,15,16,17,18,19,20,21,0,1,2,3,4,5,6,7,8,9,10,11,12,13,14,15,16,17,18,19,20,21,0,1,2,3,4,5,6,7,8,9,10,11,12,13,14,15,16,17,18,19,20,21,0,1,2,3,4,5,6,7,8,9,10,11,12,13,14,15,16,17,18,19,20,21,0,1,2,3,4,5,6,7,8,9,10,11,12,13,14,15,16,17,18,19,20,21,0,1,2,3,4,5,6,7,8,9,10,11,12,13,14,15,16,17,18,19,20,21,0,1,2,3,4,5,6,7,8,9,10,11,12,13,14,15,16,17,18,19,20,21,0,1,2,3,4,5,6,7,8,9,10,11,12,13,14,15,16,17,18,19,20,21,0,1,2,3,4,5,6,7,8,9,10,11,12,13,14,15,16,17,18,19,20,21,0,1,2,3,4,5,6,7,8,9,10,11,12,13,14,15,16,17,18,19,20,21,0,1,2,3,4,5,6,7,8,9,10,11,12,13,14,15,16,17,18,19,20,21,0,1,2,3,4,5,6,7,8,9,10,11,12,13,14,15,16,17,18,19,20,21,0,1,2,3,4,5,6,7,8,9,10,11,12,13,14,15,16,17,18,19,20,21,0,1,2,3,4,5,6,7,8,9,10,11,12,13,14,15,16,17,18,19,20,21,0,1,2,3,4,5,6,7,8,9,10,11,12,13,14,15,16,17,18,19,20,21,0,1,2,3,4,5,6,7,8,9,10,11,12,13,14,15,16,17,18,19,20,21,0,1,2,3,4,5,6,7,8,9,10,11,12,13,14,15,16,17,18,19,20,21,0,1,2,3,4,5,6,7,8,9,10,11,12,13,14,15,16,17,18,19,20,21,0,1,2,3,4,5,6,7,8,9,10,11,12,13,14,15,16,17,18,19,20,21,0,1,2,3,4,5,6,7,8,9,10,11,12,13,14,15,16,17,18,19,20,21,0,1,2,3,4,5,6,7,8,9,10,11,12,13,14,15,16,17,18,19,20,21,0,1,2,3,4,5,6,7,8,9,10,11,12,13,14,15,16,17,18,19,20,21,0,1,2,3,4,5,6,7,8,9,10,11,12,13,14,15,16,17,18,19,20,21,0,1,2,3,4,5,6,7,8,9,10,11,12,13,14,15,16,17,18,19,20,21,0,1,2,3,4,5,6,7,8,9,10,11,12,13,14,15,16,17,18,19,20,21,0,1,2,3,4,5,6,7,8,9,10,11,12,13,14,15,16,17,18,19,20,21,0,1,2,3,4,5,6,7,8,9,10,11,12,13,14,15,16,17,18,19,20,21,0,1,2,3,4,5,6,7,8,9,10,11,12,13,14,15,16,17,18,19,20,21,0,1,2,3,4,5,6,7,8,9,10,11,12,13,14,15,16,17,18,19,20,21,0,1,2,3,4,5,6,7,8,9,10,11,12,13,14,15,16,17,18,19,20,21,0,1,2,3,4,5,6,7,8,9,10,11,12,13,14,15,16,17,18,19,20,21,0,1,2,3,4,5,6,7,8,9,10,11,12,13,14,15,16,17,18,19,20,21,0,1,2,3,4,5,6,7,8,9,10,11,12,13,14,15,16,17,18,19,20,21,0,1,2,3,4,5,6,7,8,9,10,11,12,13,14,15,16,17,18,19,20,21,0,1,2,3,4,5,6,7,8,9,10,11,12,13,14,15,16,17,18,19,20,21,0,1,2,3,4,5,6,7,8,9,10,11,12,13,14,15,16,17,18,19,20,21,0,1,2,3,4,5,6,7,8,9,10,11,12,13,14,15,16,17,18,19,20,21,0,1,2,3,4,5,6,7,8,9,10,11,12,13,14,15,16,17,18,19,20,21,0,1,2,3,4,5,6,7,8,9,10,11,12,13,14,15,16,17,18,19,20,21,0,1,2,3,4,5,6,7,8,9,10,11,12,13,14,15,16,17,18,19,20,21,0,1,2,3,4,5,6,7,8,9,10,11,12,13,14,15,16,17,18,19,20,21,0,1,2,3,4,5,6,7,8,9,10,11,12,13,14,15,16,17,18,19,20,21,0,1,2,3,4,5,6,7,8,9,10,11,12,13,14,15,16,17,18,19,20,21,0,1,2,3,4,5,6,7,8,9,10,11,12,13,14,15,16,17,18,19,20,21,0,1,2,3,4,5,6,7,8,9,10,11,12,13,14,15,16,17,18,19,20,21,0,1,2,3,4,5,6,7,8,9,10,11,12,13,14,15,16,17,18,19,20,21,0,1,2,3,4,5,6,7,8,9,10,11,12,13,14,15,16,17,18,19,20,21,0,1,2,3,4,5,6,7,8,9,10,11,12,13,14,15,16,17,18,19,20,21,0,1,2,3,4,5,6,7,8,9,10,11,12,13,14,15,16,17,18,19,20,21,0,1,2,3,4,5,6,7,8,9,10,11,12,13,14,15,16,17,18,19,20,21,0,1,2,3,4,5,6,7,8,9,10,11,12,13,14,15,16,17,18,19,20,21,0,1,2,3,4,5,6,7,8,9,10,11,12,13,14,15,16,17,18,19,20,21,0,1,2,3,4,5,6,7,8,9,10,11,12,13,14,15,16,17,18,19,20,21,0,1,2,3,4,5,6,7,8,9,10,11,12,13,14,15,16,17,18,19,20,21,0,1,2,3,4,5,6,7,8,9,10,11,12,13,14,15,16,17,18,19,20,21,0,1,2,3,4,5,6,7,8,9,10,11,12,13,14,15,16,17,18,19,20,21,0,1,2,3,4,5,6,7,8,9,10,11,12,13,14,15,16,17,18,19,20,21,0,1,2,3,4,5,6,7,8,9,10,11,12,13,14,15,16,17,18,19,20,21,0,1,2,3,4,5,6,7,8,9,10,11,12,13,14,15,16,17,18,19,20,21,0,1,2,3,4,5,6,7,8,9,10,11,12,13,14,15,16,17,18,19,20,21,0,1,2,3,4,5,6,7,8,9,10,11,12,13,14,15,16,17,18,19,20,21,0,1,2,3,4,5,6,7,8,9,10,11,12,13,14,15,16,17,18,19,20,21,0,1,2,3,4,5,6,7,8,9,10,11,12,13,14,15,16,17,18,19,20,21,0,1,2,3,4,5,6,7,8,9,10,11,12,13,14,15,16,17,18,19,20,21,0,1,2,3,4,5,6,7,8,9,10,11,12,13,14,15,16,17,18,19,20,21,0,1,2,3,4,5,6,7,8,9,10,11,12,13,14,15,16,17,18,19,20,21,0,1,2,3,4,5,6,7,8,9,10,11,12,13,14,15,16,17,18,19,20,21,0,1,2,3,4,5,6,7,8,9,10,11,12,13,14,15,16,17,18,19,20,21,0,1,2,3,4,5,6,7,8,9,10,11,12,13,14,15,16,17,18,19,20,21,0,1,2,3,4,5,6,7,8,9,10,11,12,13,14,15,16,17,18,19,20,21,0,1,2,3,4,5,6,7,8,9,10,11,12,13,14,15,16,17,18,19,20,21,0,1,2,3,4,5,6,7,8,9,10,11,12,13,14,15,16,17,18,19,20,21,0,1,2,3,4,5,6,7,8,9,10,11,12,13,14,15,16,17,18,19,20,21,0,1,2,3,4,5,6,7,8,9,10,11,12,13,14,15,16,17,18,19,20,21,0,1,2,3,4,5,6,7,8,9,10,11,12,13,14,15,16,17,18,19,20,21,0,1,2,3,4,5,6,7,8,9,10,11,12,13,14,15,16,17,18,19,20,21,0,1,2,3,4,5,6,7,8,9,10,11,12,13,14,15,16,17,18,19,20,21,0,1,2,3,4,5,6,7,8,9,10,11,12,13,14,15,16,17,18,19,20,21,0,1,2,3,4,5,6,7,8,9,10,11,12,13,14,15,16,17,18,19,20,21,0,1,2,3,4,5,6,7,8,9,10,11,12,13,14,15,16,17,18,19,20,21,0,1,2,3,4,5,6,7,8,9,10,11,12,13,14,15,16,17,18,19,20,21,0,1,2,3,4,5,6,7,8,9,10,11,12,13,14,15,16,17,18,19,20,21,0,1,2,3,4,5,6,7,8,9,10,11,12,13,14,15,16,17,18,19,20,21,0,1,2,3,4,5,6,7,8,9,10,11,12,13,14,15,16,17,18,19,20,21,0,1,2,3,4,5,6,7,8,9,10,11,12,13,14,15,16,17,18,19,20,21,0,1,2,3,4,5,6,7,8,9,10,11,12,13,14,15,16,17,18,19,20,21,0,1,2,3,4,5,6,7,8,9,10,11,12,13,14,15,16,17,18,19,20,21,0,1,2,3,4,5,6,7,8,9,10,11,12,13,14,15,16,17,18,19,20,21,0,1,2,3,4,5,6,7,8,9,10,11,12,13,14,15,16,17,18,19,20,21,0,1,2,3,4,5,6,7,8,9,10,11,12,13,14,15,16,17,18,19,20,21,0,1,2,3,4,5,6,7,8,9,10,11,12,13,14,15,16,17,18,19,20,21,0,1,2,3,4,5,6,7,8,9,10,11,12,13,14,15,16,17,18,19,20,21,0,1,2,3,4,5,6,7,8,9,10,11,12,13,14,15,16,17,18,19,20,21,0,1,2,3,4,5,6,7,8,9,10,11,12,13,14,15,16,17,18,19,20,21,0,1,2,3,4,5,6,7,8,9,10,11,12,13,14,15,16,17,18,19,20,21,0,1,2,3,4,5,6,7,8,9,10,11,12,13,14,15,16,17,18,19,20,21,0,1,2,3,4,5,6,7,8,9,10,11,12,13,14,15,16,17,18,19,20,21,0,1,2,3,4,5,6,7,8,9,10,11,12,13,14,15,16,17,18,19,20,21,0,1,2,3,4,5,6,7,8,9,10,11,12,13,14,15,16,17,18,19,20,21,0,1,2,3,4,5,6,7,8,9,10,11,12,13,14,15,16,17,18,19,20,21,0,1,2,3,4,5,6,7,8,9,10,11,12,13,14,15,16,17,18,19,20,21,0,1,2,3,4,5,6,7,8,9,10,11,12,13,14,15,16,17,18,19,20,21,0,1,2,3,4,5,6,7,8,9,10,11,12,13,14,15,16,17,18,19,20,21,0,1,2,3,4,5,6,7,8,9,10,11,12,13,14,15,16,17,18,19,20,21,0,1,2,3,4,5,6,7,8,9,10,11,12,13,14,15,16,17,18,19,20,21,0,1,2,3,4,5,6,7,8,9,10,11,12,13,14,15,16,17,18,19,20,21,0,1,2,3,4,5,6,7,8,9,10,11,12,13,14,15,16,17,18,19,20,21,0,1,2,3,4,5,6,7,8,9,10,11,12,13,14,15,16,17,18,19,20,21,0,1,2,3,4,5,6,7,8,9,10,11,12,13,14,15,16,17,18,19,20,21,0,1,2,3,4,5,6,7,8,9,10,11,12,13,14,15,16,17,18,19,20,21,0,1,2,3,4,5,6,7,8,9,10,11,12,13,14,15,16,17,18,19,20,21,0,1,2,3,4,5,6,7,8,9,10,11,12,13,14,15,16,17,18,19,20,21,0,1,2,3,4,5,6,7,8,9,10,11,12,13,14,15,16,17,18,19,20,21,0,1,2,3,4,5,6,7,8,9,10,11,12,13,14,15,16,17,18,19,20,21,0,1,2,3,4,5,6,7,8,9,10,11,12,13,14,15,16,17,18,19,20,21,0,1,2,3,4,5,6,7,8,9,10,11,12,13,14,15,16,17,18,19,20,21,0,1,2,3,4,5,6,7,8,9,10,11,12,13,14,15,16,17,18,19,20,21,0,1,2,3,4,5,6,7,8,9,10,11,12,13,14,15,16,17,18,19,20,21,0,1,2,3,4,5,6,7,8,9,10,11,12,13,14,15,16,17,18,19,20,21,0,1,2,3,4,5,6,7,8,9,10,11,12,13,14,15,16,17,18,19,20,21,0,1,2,3,4,5,6,7,8,9,10,11,12,13,14,15,16,17,18,19,20,21,0,1,2,3,4,5,6,7,8,9,10,11,12,13,14,15,16,17,18,19,20,21,0,1,2,3,4,5,6,7,8,9,10,11,12,13,14,15,16,17,18,19,20,21,0,1,2,3,4,5,6,7,8,9,10,11,12,13,14,15,16,17,18,19,20,21,0,1,2,3,4,5,6,7,8,9,10,11,12,13,14,15,16,17,18,19,20,21,0,1,2,3,4,5,6,7,8,9,10,11,12,13,14,15,16,17,18,19,20,21,0,1,2,3,4,5,6,7,8,9,10,11,12,13,14,15,16,17,18,19,20,21,0,1,2,3,4,5,6,7,8,9,10,11,12,13,14,15,16,17,18,19,20,21,0,1,2,3,4,5,6,7,8,9,10,11,12,13,14,15,16,17,18,19,20,21,0,1,2,3,4,5,6,7,8,9,10,11,12,13,14,15,16,17,18,19,20,21,0,1,2,3,4,5,6,7,8,9,10,11,12,13,14,15,16,17,18,19,20,21,0,1,2,3,4,5,6,7,8,9,10,11,12,13,14,15,16,17,18,19,20,21,0,1,2,3,4,5,6,7,8,9,10,11,12,13,14,15,16,17,18,19,20,21,0,1,2,3,4,5,6,7,8,9,10,11,12,13,14,15,16,17,18,19,20,21,0,1,2,3,4,5,6,7,8,9,10,11,12,13,14,15,16,17,18,19,20,21,0,1,2,3,4,5,6,7,8,9,10,11,12,13,14,15,16,17,18,19,20,21,0,1,2,3,4,5,6,7,8,9,10,11,12,13,14,15,16,17,18,19,20,21,0,1,2,3,4,5,6,7,8,9,10,11,12,13,14,15,16,17,18,19,20,21,0,1,2,3,4,5,6,7,8,9,10,11,12,13,14,15,16,17,18,19,20,21,0,1,2,3,4,5,6,7,8,9,10,11,12,13,14,15,16,17,18,19,20,21,0,1,2,3,4,5,6,7,8,9,10,11,12,13,14,15,16,17,18,19,20,21,0,1,2,3,4,5,6,7,8,9,10,11,12,13,14,15,16,17,18,19,20,21,0,1,2,3,4,5,6,7,8,9,10,11,12,13,14,15,16,17,18,19,20,21,0,1,2,3,4,5,6,7,8,9,10,11,12,13,14,15,16,17,18,19,20,21,0,1,2,3,4,5,6,7,8,9,10,11,12,13,14,15,16,17,18,19,20,21,0,1,2,3,4,5,6,7,8,9,10,11,12,13,14,15,16,17,18,19,20,21,0,1,2,3,4,5,6,7,8,9,10,11,12,13,14,15,16,17,18,19,20,21,0,1,2,3,4,5,6,7,8,9,10,11,12,13,14,15,16,17,18,19,20,21,0,1,2,3,4,5,6,7,8,9,10,11,12,13,14,15,16,17,18,19,20,21,0,1,2,3,4,5,6,7,8,9,10,11,12,13,14,15,16,17,18,19,20,21,0,1,2,3,4,5,6,7,8,9,10,11,12,13,14,15,16,17,18,19,20,21,0,1,2,3,4,5,6,7,8,9,10,11,12,13,14,15,16,17,18,19,20,21,0,1,2,3,4,5,6,7,8,9,10,11,12,13,14,15,16,17,18,19,20,21,0,1,2,3,4,5,6,7,8,9,10,11,12,13,14,15,16,17,18,19,20,21,0,1,2,3,4,5,6,7,8,9,10,11,12,13,14,15,16,17,18,19,20,21,0,1,2,3,4,5,6,7,8,9,10,11,12,13,14,15,16,17,18,19,20,21,0,1,2,3,4,5,6,7,8,9,10,11,12,13,14,15,16,17,18,19,20,21,0,1,2,3,4,5,6,7,8,9,10,11,12,13,14,15,16,17,18,19,20,21,0,1,2,3,4,5,6,7,8,9,10,11,12,13,14,15,16,17,18,19,20,21,0,1,2,3,4,5,6,7,8,9,10,11,12,13,14,15,16,17,18,19,20,21,0,1,2,3,4,5,6,7,8,9,10,11,12,13,14,15,16,17,18,19,20,21,0,1,2,3,4,5,6,7,8,9,10,11,12,13,14,15,16,17,18,19,20,21,0,1,2,3,4,5,6,7,8,9,10,11,12,13,14,15,16,17,18,19,20,21,0,1,2,3,4,5,6,7,8,9,10,11,12,13,14,15,16,17,18,19,20,21,0,1,2,3,4,5,6,7,8,9,10,11,12,13,14,15,16,17,18,19,20,21,0,1,2,3,4,5,6,7,8,9,10,11,12,13,14,15,16,17,18,19,20,21,0,1,2,3,4,5,6,7,8,9,10,11,12,13,14,15,16,17,18,19,20,21,0,1,2,3,4,5,6,7,8,9,10,11,12,13,14,15,16,17,18,19,20,21,0,1,2,3,4,5,6,7,8,9,10,11,12,13,14,15,16,17,18,19,20,21,0,1,2,3,4,5,6,7,8,9,10,11,12,13,14,15,16,17,18,19,20,21,0,1,2,3,4,5,6,7,8,9,10,11,12,13,14,15,16,17,18,19,20,21,0,1,2,3,4,5,6,7,8,9,10,11,12,13,14,15,16,17,18,19,20,21,0,1,2,3,4,5,6,7,8,9,10,11,12,13,14,15,16,17,18,19,20,21,0,1,2,3,4,5,6,7,8,9,10,11,12,13,14,15,16,17,18,19,20,21,0,1,2,3,4,5,6,7,8,9,10,11,12,13,14,15,16,17,18,19,20,21],"trees":[{"base_weights":[-8.481134E-3,-5.191502E-2,4.838158E0,-4.4170987E-2,9.2990416E-1],"categories":[],"categories_nodes":[],"categories_segments":[],"categories_sizes":[],"default_left":[0,0,0,0,0],"id":0,"left_children":[1,-1,3,-1,-1],"loss_changes":[3.0760504E2,0E0,2.831409E2,0E0,0E0],"parents":[2147483647,0,0,2,2],"right_children":[2,-1,4,-1,-1],"split_conditions":[1.2E2,-5.191502E-2,8.389242E1,-4.4170987E-2,9.2990416E-1],"split_indices":[1,0,4,0,0],"split_type":[0,0,0,0,0],"sum_hessian":[1.2226859E2,1.11421486E2,1.0847108E1,5.380165E0,5.4669423E0],"tree_param":{"num_deleted":"0","num_feature":"9","num_nodes":"5","size_leaf_vector":"1"}},{"base_weights":[-5.1839318E-2,-5.092793E-1,2.614961E0,-5.187563E-2,1.641791E-2,-4.839724E-2,9.122707E-1],"categories":[],"categories_nodes":[],"categories_segments":[],"categories_sizes":[],"default_left":[0,0,0,0,0,0,0],"id":1,"left_children":[1,3,5,-1,-1,-1,-1],"loss_changes":[1.500135E2,7.544918E-1,3.6758914E2,0E0,0E0,0E0,0E0],"parents":[2147483647,0,0,1,1,2,2],"right_children":[2,4,6,-1,-1,-1,-1],"split_conditions":[2.1E2,2.02E2,6.1E1,-5.187563E-2,1.641791E-2,-4.839724E-2,9.122707E-1],"split_indices":[7,7,0,0,0,0,0],"split_type":[0,0,0,0,0,0,0],"sum_hessian":[1.20880165E2,1.038719E2,1.7008265E1,1.0265703E2,1.214876E0,1.2148761E1,4.859504E0],"tree_param":{"num_deleted":"0","num_feature":"9","num_nodes":"7","size_leaf_vector":"1"}},{"base_weights":[-1.3570962E-2,8.227367E-1,-5.1690716E-2,-5.043077E-2,2.5786622E0,-4.706376E-2,5.079789E0,-3.7485313E-2,6.7460938E0,7.7661467E0,-2.6720649E-2,8.7754434E-1,1.1320388E-1],"categories":[],"categories_nodes":[],"categories_segments":[],"categories_sizes":[],"default_left":[0,0,0,0,0,0,0,0,0,0,0,0,0],"id":2,"left_children":[1,3,-1,-1,5,-1,7,-1,9,11,-1,-1,-1],"loss_changes":[5.118207E1,1.07767075E2,0E0,0E0,1.5363232E2,0E0,1.02321045E2,0E0,6.2617554E1,3.9758514E1,0E0,0E0,0E0],"parents":[2147483647,0,0,1,1,4,4,6,6,8,8,9,9],"right_children":[2,4,-1,-1,6,-1,8,-1,10,12,-1,-1,-1],"split_conditions":[7.4915596E1,5.9870655E1,-5.1690716E-2,-5.043077E-2,6.4875464E0,-4.706376E-2,2.5011576E1,-3.7485313E-2,7.095706E1,7.7232404E0,-2.6720649E-2,8.7754434E-1,1.1320388E-1],"split_indices":[6,6,0,0,5,0,3,0,4,5,0,0,0],"split_type":[0,0,0,0,0,0,0,0,0,0,0,0,0],"sum_hessian":[1.19578514E2,4.4690083E1,7.488843E1,2.5859505E1,1.8830578E1,8.85124E0,9.979339E0,2.5165288E0,7.46281E0,6.421488E0,1.0413224E0,5.2933884E0,1.1280992E0],"tree_param":{"num_deleted":"0","num_feature":"9","num_nodes":"13","size_leaf_vector":"1"}},{"base_weights":[3.1689644E-2,8.039362E0,-5.0216204E-1,-2.6720649E-2,9.364864E-1,6.1567165E-2,-5.1926937E-2],"categories":[],"categories_nodes":[],"categories_segments":[],"categories_sizes":[],"default_left":[0,0,0,0,0,0,0],"id":3,"left_children":[1,3,5,-1,-1,-1,-1],"loss_changes":[5.3137006E2,8.803757E1,2.5492E0,0E0,0E0,0E0,0E0],"parents":[2147483647,0,0,1,1,2,2],"right_children":[2,4,6,-1,-1,-1,-1],"split_conditions":[1.985389E1,2.6E1,2.1210922E1,-2.6720649E-2,9.364864E-1,6.1567165E-2,-5.1926937E-2],"split_indices":[4,2,4,0,0,0,0],"split_type":[0,0,0,0,0,0,0],"sum_hessian":[1.2235537E2,6.768595E0,1.1558678E2,1.0413224E0,5.727273E0,1.214876E0,1.143719E2],"tree_param":{"num_deleted":"0","num_feature":"9","num_nodes":"7","size_leaf_vector":"1"}},{"base_weights":[1.3034476E-2,-2.2641577E-1,7.9472476E-1,-4.9792323E-1,9.3663365E-1,1.3824056E-2,-5.0796854E-1,-4.9429573E-2,4.8774967E0,-5.1826417E-2,3.3232614E-3,8.152941E-1,-3.671199E-2],"categories":[],"categories_nodes":[],"categories_segments":[],"categories_sizes":[],"default_left":[0,0,0,0,0,0,0,0,0,0,0,0,0],"id":4,"left_children":[1,3,-1,5,7,-1,9,-1,11,-1,-1,-1,-1],"loss_changes":[2.3368306E2,3.8186016E1,0E0,6.932659E-1,1.3185382E2,0E0,5.53215E-1,0E0,1.0961307E2,0E0,0E0,0E0,0E0],"parents":[2147483647,0,0,1,1,3,3,4,4,6,6,8,8],"right_children":[2,4,-1,6,8,-1,10,-1,12,-1,-1,-1,-1],"split_conditions":[9.521224E1,9.0975975E1,7.9472476E-1,8E0,1.2446831E2,1.3824056E-2,9.071037E1,-4.9429573E-2,3.1E1,-5.1826417E-2,3.3232614E-3,8.152941E-1,-3.671199E-2],"split_indices":[4,4,0,1,6,0,4,0,1,0,0,0,0],"split_type":[0,0,0,0,0,0,0,0,0,0,0,0,0],"sum_hessian":[1.2105372E2,1.1845042E2,2.6033058E0,9.6495865E1,2.1954546E1,1.3016529E0,9.5194214E1,1.6747934E1,5.2066116E0,9.345868E1,1.7355372E0,2.8636365E0,2.3429751E0],"tree_param":{"num_deleted":"0","num_feature":"9","num_nodes":"13","size_leaf_vector":"1"}},{"base_weights":[-2.3288148E-2,-5.17912E-2,1.1615058E0,-5.028155E-2,4.231301E0,8.4240097E-1,-4.506636E-2],"categories":[],"categories_nodes":[],"categories_segments":[],"categories_sizes":[],"default_left":[0,0,0,0,0,0,0],"id":5,"left_children":[1,-1,3,-1,5,-1,-1],"loss_changes":[7.380654E1,0E0,1.9167189E2,0E0,2.6190802E2,0E0,0E0],"parents":[2147483647,0,0,2,2,4,4],"right_children":[2,-1,4,-1,6,-1,-1],"split_conditions":[8E1,-5.17912E-2,1.14282135E2,-5.028155E-2,3.6E1,8.4240097E-1,-4.506636E-2],"split_indices":[0,0,6,0,2,0,0],"split_type":[0,0,0,0,0,0,0],"sum_hessian":[1.2391736E2,8.7818184E1,3.6099174E1,2.3950413E1,1.2148761E1,5.987603E0,6.161157E0],"tree_param":{"num_deleted":"0","num_feature":"9","num_nodes":"7","size_leaf_vector":"1"}},{"base_weights":[1.8912427E-2,-5.187815E-2,2.905837E0,8.7657243E-1,-4.8423354E-2],"categories":[],"categories_nodes":[],"categories_segments":[],"categories_sizes":[],"default_left":[0,0,0,0,0],"id":6,"left_children":[1,-1,3,-1,-1],"loss_changes":[1.917775E2,0E0,3.895683E2,0E0,0E0],"parents":[2147483647,0,0,2,2],"right_children":[2,-1,4,-1,-1],"split_conditions":[1E2,-5.187815E-2,2.6E1,8.7657243E-1,-4.8423354E-2],"split_indices":[0,0,2,0,0],"split_type":[0,0,0,0,0],"sum_hessian":[1.2157438E2,1.0317769E2,1.8396694E1,6.161157E0,1.2235538E1],"tree_param":{"num_deleted":"0","num_feature":"9","num_nodes":"5","size_leaf_vector":"1"}},{"base_weights":[-1.766243E-2,-5.1915377E-2,4.677552E0,9.2759067E-1,-4.4492844E-2],"categories":[],"categories_nodes":[],"categories_segments":[],"categories_sizes":[],"default_left":[0,0,0,0,0],"id":7,"left_children":[1,-1,3,-1,-1],"loss_changes":[2.9329077E2,0E0,2.872736E2,0E0,0E0],"parents":[2147483647,0,0,2,2],"right_children":[2,-1,4,-1,-1],"split_conditions":[1.2E2,-5.1915377E-2,8.404404E1,9.2759067E-1,-4.4492844E-2],"split_indices":[1,0,4,0,0],"split_type":[0,0,0,0,0],"sum_hessian":[1.2252892E2,1.1150826E2,1.1020661E1,5.380165E0,5.640496E0],"tree_param":{"num_deleted":"0","num_feature":"9","num_nodes":"5","size_leaf_vector":"1"}},{"base_weights":[-1.2635158E-2,-5.1688343E-2,7.8734833E-1,1.947958E0,-2.7112678E-1,-4.4594597E-2,2.773867E0,2.4707028E-1,-4.952724E-2,4.4286747E0,-4.4594597E-2,1.0255152E0,-4.2407554E-2,-3.2605305E-2,5.2649174E0,-3.2605305E-2,2.0225807E-1,-2.7766991E-2,6.0210526E-1],"categories":[],"categories_nodes":[],"categories_segments":[],"categories_sizes":[],"default_left":[0,0,0,0,0,0,0,0,0,0,0,0,0,0,0,0,0,0,0],"id":8,"left_children":[1,-1,3,5,7,-1,9,11,-1,13,-1,15,-1,-1,17,-1,-1,-1,-1],"loss_changes":[4.9747265E1,0E0,5.9109207E1,4.644993E1,3.1211905E0,0E0,9.330246E1,4.856291E0,0E0,4.7096832E1,0E0,6.333875E0,0E0,0E0,4.2594177E1,0E0,0E0,0E0,0E0],"parents":[2147483647,0,0,2,2,3,3,4,4,6,6,7,7,9,9,11,11,14,14],"right_children":[2,-1,4,6,8,-1,10,12,-1,14,-1,16,-1,-1,18,-1,-1,-1,-1],"split_conditions":[6E1,-5.1688343E-2,9.2E1,3.4E1,1.01E2,-4.4594597E-2,4.6E1,2.542517E1,-4.952724E-2,2.3093481E1,-4.4594597E-2,1.68E2,-4.2407554E-2,-3.2605305E-2,5.9511776E0,-3.2605305E-2,2.0225807E-1,-2.7766991E-2,6.0210526E-1],"split_indices":[0,0,0,2,0,0,2,3,0,3,0,7,0,0,5,0,0,0,0],"split_type":[0,0,0,0,0,0,0,0,0,0,0,0,0,0,0,0,0,0,0],"sum_hessian":[1.2131405E2,7.46281E1,4.668595E1,2.186777E1,2.4818182E1,5.727273E0,1.6140495E1,7.46281E0,1.7355371E1,1.0413223E1,5.727273E0,3.210744E0,4.252066E0,1.6487603E0,8.764462E0,1.6487603E0,1.5619835E0,1.1280992E0,7.6363635E0],"tree_param":{"num_deleted":"0","num_feature":"9","num_nodes":"19","size_leaf_vector":"1"}},{"base_weights":[6.727348E-3,1.4668536E0,-5.1800277E-2,4.268979E0,-3.0616304E-1,6.8105903E0,-2.4737632E-1,1.03125E-1,-4.960596E-2,7.890187E-1,-2.6720649E-2,-4.0665437E-2,2.2267206E-2],"categories":[],"categories_nodes":[],"categories_segments":[],"categories_sizes":[],"default_left":[0,0,0,0,0,0,0,0,0,0,0,0,0],"id":9,"left_children":[1,3,-1,5,7,9,11,-1,-1,-1,-1,-1,-1],"loss_changes":[9.3941574E1,1.6234285E2,0E0,1.4664046E2,5.7903605E0,6.4121735E1,5.032548E-1,0E0,0E0,0E0,0E0,0E0,0E0],"parents":[2147483647,0,0,1,1,3,3,4,4,5,5,6,6],"right_children":[2,4,-1,6,8,10,12,-1,-1,-1,-1,-1,-1],"split_conditions":[6.0002484E0,2.4E1,-5.1800277E-2,2.4693155E1,2.6E1,4.1E1,7E1,1.03125E-1,-4.960596E-2,7.890187E-1,-2.6720649E-2,-4.0665437E-2,2.2267206E-2],"split_indices":[5,2,0,3,2,0,1,0,0,0,0,0,0],"split_type":[0,0,0,0,0,0,0,0,0,0,0,0,0],"sum_hessian":[1.20619835E2,3.1413223E1,8.920661E1,1.1628099E1,1.9785124E1,7.1157026E0,4.512397E0,1.9090909E0,1.7876034E1,6.0743804E0,1.0413224E0,3.4710743E0,1.0413224E0],"tree_param":{"num_deleted":"0","num_feature":"9","num_nodes":"13","size_leaf_vector":"1"}},{"base_weights":[-1.5764713E-2,2.058803E0,-5.184796E-2,5.6669436E0,-4.8861746E-2,-3.912134E-2,8.280899E-1],"categories":[],"categories_nodes":[],"categories_segments":[],"categories_sizes":[],"default_left":[0,0,0,0,0,0,0],"id":10,"left_children":[1,3,-1,5,-1,-1,-1],"loss_changes":[1.2736373E2,2.2173059E2,0E0,1.6061557E2,0E0,0E0,0E0],"parents":[2147483647,0,0,1,1,3,3],"right_children":[2,4,-1,6,-1,-1,-1],"split_conditions":[5.521607E1,6.971184E1,-5.184796E-2,5.9966694E1,-4.8861746E-2,-3.912134E-2,8.280899E-1],"split_indices":[6,4,0,4,0,0,0],"split_type":[0,0,0,0,0,0,0],"sum_hessian":[1.20099174E2,2.2822313E1,9.727686E1,8.938017E0,1.3884297E1,2.9504132E0,5.987603E0],"tree_param":{"num_deleted":"0","num_feature":"9","num_nodes":"7","size_leaf_vector":"1"}},{"base_weights":[-3.7507195E-2,6.659783E-1,-5.1667042E-2,-4.4717693E-1,2.6551723E0,-5.0532307E-2,-7.306275E-2,4.0948906E0,-4.4492844E-2,7.125506E-2,-4.088849E-2,7.811976E0,-4.43884E-2,8.610719E-1,1.6923076E-1],"categories":[],"categories_nodes":[],"categories_segments":[],"categories_sizes":[],"default_left":[0,0,0,0,0,0,0,0,0,0,0,0,0,0,0],"id":11,"left_children":[1,3,-1,5,7,-1,9,11,-1,-1,-1,13,-1,-1,-1],"loss_changes":[4.1603497E1,1.1196546E2,0E0,6.7949915E-1,8.258501E1,0E0,1.7685606E0,2.135884E2,0E0,0E0,0E0,1.9159576E1,0E0,0E0,0E0],"parents":[2147483647,0,0,1,1,3,3,4,4,6,6,7,7,11,11],"right_children":[2,4,-1,6,8,-1,10,12,-1,-1,-1,14,-1,-1,-1],"split_conditions":[2.6E1,1.22E2,-5.1667042E-2,1.14E2,6.1E1,-5.0532307E-2,1.9E1,7.51464E1,-4.4492844E-2,7.125506E-2,-4.088849E-2,2.6100183E1,-4.43884E-2,8.610719E-1,1.6923076E-1],"split_indices":[2,7,0,7,1,0,2,4,0,0,0,3,0,0,0],"split_type":[0,0,0,0,0,0,0,0,0,0,0,0,0,0,0],"sum_hessian":[1.21400826E2,4.9028927E1,7.23719E1,3.1933884E1,1.7095041E1,2.7334711E1,4.5991735E0,1.1454546E1,5.640496E0,1.0413224E0,3.5578513E0,5.9008265E0,5.553719E0,4.859504E0,1.0413224E0],"tree_param":{"num_deleted":"0","num_feature":"9","num_nodes":"15","size_leaf_vector":"1"}},{"base_weights":[-1.973798E-2,1.8671912E0,-5.184273E-2,-4.9144756E-2,5.3103447E0,1.4712822E-1,8.7754434E-1,-3.967936E-2,1.1320388E-1],"categories":[],"categories_nodes":[],"categories_segments":[],"categories_sizes":[],"default_left":[0,0,0,0,0,0,0,0,0],"id":12,"left_children":[1,3,-1,-1,5,7,-1,-1,-1],"loss_changes":[1.1581951E2,2.1157849E2,0E0,0E0,1.8737814E2,3.262793E0,0E0,0E0,0E0],"parents":[2147483647,0,0,1,1,4,4,5,5],"right_children":[2,4,-1,-1,6,8,-1,-1,-1],"split_conditions":[5.5187923E1,2.7197117E1,-5.184273E-2,-4.9144756E-2,2.6E1,5.875E-1,8.7754434E-1,-3.967936E-2,1.1320388E-1],"split_indices":[4,3,0,0,2,8,0,0,0],"split_type":[0,0,0,0,0,0,0,0,0],"sum_hessian":[1.2105372E2,2.4731405E1,9.632231E1,1.518595E1,9.545455E0,4.252066E0,5.2933884E0,3.123967E0,1.1280992E0],"tree_param":{"num_deleted":"0","num_feature":"9","num_nodes":"9","size_leaf_vector":"1"}},{"base_weights":[-3.2472346E-2,8.614787E-1,-4.8117784E-1,3.2963774E0,-5.04739E-2,-1.4260171E-1,-5.1677037E-2,4.4407988E0,-4.0665437E-2,-4.5712784E-2,9.515571E-2,3.386745E0,6.6132927E-1,4.4170985E-1,1.1589649E0,2.7249021E-2,1.876122E-1],"categories":[],"categories_nodes":[],"categories_segments":[],"categories_sizes":[],"default_left":[0,0,0,0,0,0,0,0,0,0,0,0,0,0,0,0,0],"id":13,"left_children":[1,3,5,7,-1,9,-1,11,-1,-1,-1,13,-1,-1,15,-1,-1],"loss_changes":[4.9825306E1,1.3980026E2,9.223881E-1,6.561844E1,0E0,3.6161592E0,0E0,4.135315E0,0E0,0E0,0E0,1.7493294E1,0E0,0E0,2.3312244E0,0E0,0E0],"parents":[2147483647,0,0,1,1,2,2,3,3,5,5,7,7,11,11,14,14],"right_children":[2,4,6,8,-1,10,-1,12,-1,-1,-1,14,-1,-1,16,-1,-1],"split_conditions":[1.07E2,7.462069E1,1.2E2,6E1,-5.04739E-2,6E-1,-5.1677037E-2,6.0745834E1,-4.0665437E-2,-4.5712784E-2,9.515571E-2,4.8566902E1,6.6132927E-1,4.4170985E-1,4.9E1,2.7249021E-2,1.876122E-1],"split_indices":[7,6,7,1,0,8,0,6,0,0,0,6,0,0,1,0,0],"split_type":[0,0,0,0,0,0,0,0,0,0,0,0,0,0,0,0,0],"sum_hessian":[1.22181816E2,4.0524796E1,8.165703E1,1.4057852E1,2.6466942E1,8.243802E0,7.341322E1,1.0586777E1,3.4710743E0,6.855372E0,1.3884298E0,8.85124E0,1.7355372E0,5.380165E0,3.4710743E0,2.1694214E0,1.3016529E0],"tree_param":{"num_deleted":"0","num_feature":"9","num_nodes":"17","size_leaf_vector":"1"}},{"base_weights":[-3.3517515E-3,1.8336145E0,-5.183593E-2,4.829482E0,-3.8796164E-2,-4.3025833E-2,9.094488E-1,1.5430862E0,-4.8756078E-2,-3.538874E-2,3.651822E-1],"categories":[],"categories_nodes":[],"categories_segments":[],"categories_sizes":[],"default_left":[0,0,0,0,0,0,0,0,0,0,0],"id":14,"left_children":[1,3,-1,5,7,-1,-1,9,-1,-1,-1],"loss_changes":[1.16419556E2,1.5134239E2,0E0,2.3658398E2,1.3228273E1,0E0,0E0,1.7789093E1,0E0,0E0,0E0],"parents":[2147483647,0,0,1,1,3,3,4,4,7,7],"right_children":[2,4,-1,6,8,-1,-1,10,-1,-1,-1],"split_conditions":[6.0745834E1,1.01E2,-5.183593E-2,6.971184E1,1.14E2,-4.3025833E-2,9.094488E-1,6.7104645E1,-4.8756078E-2,-3.538874E-2,3.651822E-1],"split_indices":[6,7,0,4,7,0,0,4,0,0,0],"split_type":[0,0,0,0,0,0,0,0,0,0,0],"sum_hessian":[1.2105372E2,2.5946281E1,9.510744E1,9.371901E0,1.657438E1,4.5991735E0,4.7727275E0,3.123967E0,1.3450414E1,2.0826447E0,1.0413224E0],"tree_param":{"num_deleted":"0","num_feature":"9","num_nodes":"11","size_leaf_vector":"1"}},{"base_weights":[-2.4002172E-2,9.2025656E-1,-5.0241685E-1,6.621359E-2,-5.193267E-2],"categories":[],"categories_nodes":[],"categories_segments":[],"categories_sizes":[],"default_left":[0,0,0,0,0],"id":15,"left_children":[1,-1,3,-1,-1],"loss_changes":[5.479804E2,0E0,2.66708E0,0E0,0E0],"parents":[2147483647,0,0,2,2],"right_children":[2,-1,4,-1,-1],"split_conditions":[2.8985743E1,9.2025656E-1,3.537493E1,6.621359E-2,-5.193267E-2],"split_indices":[6,0,6,0,0],"split_type":[0,0,0,0,0],"sum_hessian":[1.2209504E2,5.119835E0,1.16975204E2,1.1280992E0,1.1584711E2],"tree_param":{"num_deleted":"0","num_feature":"9","num_nodes":"5","size_leaf_vector":"1"}},{"base_weights":[-7.485771E-4,9.2025656E-1,-4.8492062E-1,3.5199997E-1,-5.1913943E-2,-3.967936E-2,1.6923076E-1],"categories":[],"categories_nodes":[],"categories_segments":[],"categories_sizes":[],"default_left":[0,0,0,0,0,0,0],"id":16,"left_children":[1,-1,3,5,-1,-1,-1],"loss_changes":[5.456256E2,0E0,3.5141392E0,5.8554525E0,0E0,0E0,0E0],"parents":[2147483647,0,0,2,2,3,3],"right_children":[2,-1,4,6,-1,-1,-1],"split_conditions":[1.5E1,9.2025656E-1,1.6E1,8.29427E1,-5.1913943E-2,-3.967936E-2,1.6923076E-1],"split_indices":[2,0,2,4,0,0,0],"split_type":[0,0,0,0,0,0,0],"sum_hessian":[1.2044628E2,5.119835E0,1.1532645E2,4.1652894E0,1.11161156E2,3.123967E0,1.0413224E0],"tree_param":{"num_deleted":"0","num_feature":"9","num_nodes":"7","size_leaf_vector":"1"}},{"base_weights":[-9.717338E-3,-2.153551E-1,5.7752695E0,-5.1807996E-2,7.8119E-1,7.529335E-1,2.2267206E-2,-4.9704395E-2,3.3545413E0,8.3326656E-1,-4.4057783E-2],"categories":[],"categories_nodes":[],"categories_segments":[],"categories_sizes":[],"default_left":[0,0,0,0,0,0,0,0,0,0,0],"id":17,"left_children":[1,3,5,-1,7,-1,-1,-1,9,-1,-1],"loss_changes":[1.4592413E2,3.612625E1,3.9334473E1,0E0,9.372824E1,0E0,0E0,0E0,1.8158925E2,0E0,0E0],"parents":[2147483647,0,0,1,1,2,2,4,4,8,8],"right_children":[2,4,6,-1,8,-1,-1,-1,10,-1,-1],"split_conditions":[3.713165E1,9.009878E1,6.8E1,-5.1807996E-2,3.1E1,7.529335E-1,2.2267206E-2,-4.9704395E-2,7E1,8.3326656E-1,-4.4057783E-2],"split_indices":[3,4,1,0,1,0,0,0,1,0,0],"split_type":[0,0,0,0,0,0,0,0,0,0,0],"sum_hessian":[1.20619835E2,1.1740909E2,3.210744E0,9.0421486E1,2.6987604E1,2.1694214E0,1.0413224E0,1.8570248E1,8.417356E0,3.123967E0,5.2933884E0],"tree_param":{"num_deleted":"0","num_feature":"9","num_nodes":"11","size_leaf_vector":"1"}},{"base_weights":[9.845172E-3,1.2713567E0,-4.5285395E-1,-2.634859E-1,3.5903244E0,-4.3504737E-2,-5.1720906E-2,-4.901857E-2,3.0802736E-1,5.539711E0,-4.2569663E-2,-4.761009E-2,1.2866971E0,1.9701491E-1,-4.2726584E-2,-3.967936E-2,8.679452E-1,2.672065E-1,-3.1935483E-2],"categories":[],"categories_nodes":[],"categories_segments":[],"categories_sizes":[],"default_left":[0,0,0,0,0,0,0,0,0,0,0,0,0,0,0,0,0,0,0],"id":18,"left_children":[1,3,5,7,9,11,-1,-1,13,15,-1,-1,17,-1,-1,-1,-1,-1,-1],"loss_changes":[7.333807E1,1.20945694E2,2.3995972E0,2.900166E0,1.08014404E2,8.428598E0,0E0,0E0,8.9574375E0,1.7412256E2,0E0,0E0,8.870593E0,0E0,0E0,0E0,0E0,0E0,0E0],"parents":[2147483647,0,0,1,1,2,2,3,3,4,4,5,5,8,8,9,9,12,12],"right_children":[2,4,6,8,10,12,-1,-1,14,16,-1,-1,18,-1,-1,-1,-1,-1,-1],"split_conditions":[6.1027016E1,1.00216064E2,6.740461E1,9.131256E1,6.779661E-1,9.47819E1,-5.1720906E-2,-4.901857E-2,2.6E1,2.4938963E1,-4.2569663E-2,-4.761009E-2,8.2E1,1.9701491E-1,-4.2726584E-2,-3.967936E-2,8.679452E-1,2.672065E-1,-3.1935483E-2],"split_indices":[4,6,4,6,8,6,0,0,2,4,0,0,0,0,0,0,0,0,0],"split_type":[0,0,0,0,0,0,0,0,0,0,0,0,0,0,0,0,0,0,0],"sum_hessian":[1.2365703E2,3.2714878E1,9.094215E1,2.0219007E1,1.2495868E1,1.2582644E1,7.8359505E1,1.4578512E1,5.640496E0,8.157024E0,4.338843E0,9.979339E0,2.6033058E0,1.214876E0,4.42562E0,3.123967E0,5.0330577E0,1.0413224E0,1.5619835E0],"tree_param":{"num_deleted":"0","num_feature":"9","num_nodes":"19","size_leaf_vector":"1"}},{"base_weights":[-2.3226017E-8,1.3849019E0,-5.070461E-1,4.6693406E0,-4.1130966E-1,1.6105402E-3,-5.179292E-2,-4.224E-2,7.485207E0,6.621359E-2,-4.992242E-2,9.2521334E-1,-3.0449828E-2],"categories":[],"categories_nodes":[],"categories_segments":[],"categories_sizes":[],"default_left":[0,0,0,0,0,0,0,0,0,0,0,0,0],"id":19,"left_children":[1,3,5,7,9,-1,-1,-1,11,-1,-1,-1,-1],"loss_changes":[8.720161E1,1.9826328E2,5.2588654E-1,1.730216E2,2.4476733E0,0E0,0E0,0E0,1.0854852E2,0E0,0E0,0E0,0E0],"parents":[2147483647,0,0,1,1,2,2,3,3,4,4,8,8],"right_children":[2,4,6,8,10,-1,-1,-1,12,-1,-1,-1,-1],"split_conditions":[3E1,2.4847408E1,3.1E1,3.5E1,2.506872E1,1.6105402E-3,-5.179292E-2,-4.224E-2,4.1E1,6.621359E-2,-4.992242E-2,9.2521334E-1,-3.0449828E-2],"split_indices":[1,3,1,2,3,0,0,0,0,0,0,0,0],"split_type":[0,0,0,0,0,0,0,0,0,0,0,0,0],"sum_hessian":[1.22181816E2,3.228099E1,8.9900826E1,1.0847108E1,2.1433884E1,1.822314E0,8.8078514E1,4.1652894E0,6.681818E0,1.1280992E0,2.0305786E1,5.2933884E0,1.3884298E0],"tree_param":{"num_deleted":"0","num_feature":"9","num_nodes":"13","size_leaf_vector":"1"}},{"base_weights":[-2.9232018E-2,-3.686215E-1,6.6904106E0,-5.1908087E-2,1.4075829E0,8.675109E-1,-2.9622981E-2,-4.0665437E-2,2.5030384E0,5.65931E-1,-3.967936E-2],"categories":[],"categories_nodes":[],"categories_segments":[],"categories_sizes":[],"default_left":[0,0,0,0,0,0,0,0,0,0,0],"id":20,"left_children":[1,3,5,-1,7,-1,-1,-1,9,-1,-1],"loss_changes":[2.8616238E2,3.2630173E1,8.622644E1,0E0,2.0078999E1,0E0,0E0,0E0,5.825834E1,0E0,0E0],"parents":[2147483647,0,0,1,1,2,2,4,4,8,8],"right_children":[2,4,6,-1,8,-1,-1,-1,10,-1,-1],"split_conditions":[2.1737886E2,1.8244824E2,8.4884575E1,-5.1908087E-2,8.0031E1,8.675109E-1,-2.9622981E-2,-4.0665437E-2,8.36995E1,5.65931E-1,-3.967936E-2],"split_indices":[6,6,4,0,4,0,0,0,4,0,0],"split_type":[0,0,0,0,0,0,0,0,0,0,0],"sum_hessian":[1.233967E2,1.1836364E2,5.0330577E0,1.0977273E2,8.590909E0,3.731405E0,1.3016529E0,3.4710743E0,5.119835E0,1.9958677E0,3.123967E0],"tree_param":{"num_deleted":"0","num_feature":"9","num_nodes":"11","size_leaf_vector":"1"}},{"base_weights":[2.3968332E-2,-4.9075547E-1,3.1296208E0,-5.1879402E-2,5.880052E-1,5.697211E0,-4.6061818E-2,1.20242916E-1,-2.7766991E-2,-4.1509435E-2,9.321564E-1],"categories":[],"categories_nodes":[],"categories_segments":[],"categories_sizes":[],"default_left":[0,0,0,0,0,0,0,0,0,0,0],"id":21,"left_children":[1,3,5,-1,7,9,-1,-1,-1,-1,-1],"loss_changes":[1.9858728E2,3.5295963E0,1.6542944E2,0E0,2.019667E0,2.3363959E2,0E0,0E0,0E0,0E0,0E0],"parents":[2147483647,0,0,1,1,2,2,4,4,5,5],"right_children":[2,4,6,-1,8,10,-1,-1,-1,-1,-1],"split_conditions":[3.142857E0,2.9333334E0,2.7022692E1,-5.1879402E-2,8.9E1,4.5E1,-4.6061818E-2,1.20242916E-1,-2.7766991E-2,-4.1509435E-2,9.321564E-1],"split_indices":[8,8,3,0,0,2,0,0,0,0,0],"split_type":[0,0,0,0,0,0,0,0,0,0,0],"sum_hessian":[1.2226859E2,1.0560744E2,1.6661158E1,1.0343802E2,2.1694214E0,9.371901E0,7.289256E0,1.0413224E0,1.1280992E0,3.8181818E0,5.553719E0],"tree_param":{"num_deleted":"0","num_feature":"9","num_nodes":"11","size_leaf_vector":"1"}},{"base_weights":[-3.8120486E-2,-5.172519E-2,2.7363057E0,-4.4067733E-2,4.0916824E-1],"categories":[],"categories_nodes":[],"categories_segments":[],"categories_sizes":[],"default_left":[0,0,0,0,0],"id":22,"left_children":[1,-1,3,-1,-1],"loss_changes":[1.6350148E2,0E0,7.9807205E1,0E0,0E0],"parents":[2147483647,0,0,2,2],"right_children":[2,-1,4,-1,-1],"split_conditions":[3.24E2,-5.172519E-2,7.4915596E1,-4.4067733E-2,4.0916824E-1],"split_indices":[7,0,6,0,0],"split_type":[0,0,0,0,0],"sum_hessian":[1.2093209E2,1.0381692E2,1.711517E1,5.320011E0,1.1795158E1],"tree_param":{"num_deleted":"0","num_feature":"9","num_nodes":"5","size_leaf_vector":"1"}},{"base_weights":[-5.2282367E-2,-4.9749643E-1,1.9404678E0,-5.169929E-2,1.926001E-1,4.06305E-1,-4.768614E-2,7.287487E-2,-3.1462207E-2],"categories":[],"categories_nodes":[],"categories_segments":[],"categories_sizes":[],"default_left":[0,0,0,0,0,0,0,0,0],"id":23,"left_children":[1,3,5,-1,7,-1,-1,-1,-1],"loss_changes":[1.1059272E2,1.4691849E0,1.1876598E2,0E0,1.1880236E0,0E0,0E0,0E0,0E0],"parents":[2147483647,0,0,1,1,2,2,4,4],"right_children":[2,4,6,-1,8,-1,-1,-1,-1],"split_conditions":[2.1E2,1.98E2,7.5E1,-5.169929E-2,6.700338E0,4.06305E-1,-4.768614E-2,7.287487E-2,-3.1462207E-2],"split_indices":[7,7,2,0,5,0,0,0,0],"split_type":[0,0,0,0,0,0,0,0,0],"sum_hessian":[1.2256548E2,1.0079624E2,2.1769238E1,9.827076E1,2.5254848E0,1.1228786E1,1.054045E1,1.015416E0,1.5100689E0],"tree_param":{"num_deleted":"0","num_feature":"9","num_nodes":"9","size_leaf_vector":"1"}},{"base_weights":[3.2804422E-2,-4.6335813E-1,7.924437E-1,-5.1424872E-2,-1.9063215E-1,-5.027002E-2,2.2223144E0,-4.659886E-2,3.2771865E-1,3.1102934E0,-4.454235E-2,-3.8591847E-2,1.2694639E-1,-3.9493646E-2,3.8709247E0,7.094493E-2,4.0571508E-1],"categories":[],"categories_nodes":[],"categories_segments":[],"categories_sizes":[],"default_left":[0,0,0,0,0,0,0,0,0,0,0,0,0,0,0,0,0],"id":24,"left_children":[1,3,5,-1,7,-1,9,-1,11,13,-1,-1,-1,-1,15,-1,-1],"loss_changes":[4.7235954E1,9.547329E-1,9.278547E1,0E0,2.0820425E0,0E0,5.7553734E1,0E0,4.036096E0,4.929268E1,0E0,0E0,0E0,0E0,5.8427887E0,0E0,0E0],"parents":[2147483647,0,0,1,1,2,2,4,4,6,6,8,8,9,9,14,14],"right_children":[2,4,6,-1,8,-1,10,-1,12,14,-1,-1,-1,-1,16,-1,-1],"split_conditions":[6E1,5.5E1,6.4969344E0,-5.1424872E-2,2.7965837E1,-5.027002E-2,2.6E1,-4.659886E-2,4.3E1,1.8E1,-4.454235E-2,-3.8591847E-2,1.2694639E-1,-3.9493646E-2,2.5216227E1,7.094493E-2,4.0571508E-1],"split_indices":[1,1,5,0,3,0,2,0,0,0,0,0,0,0,3,0,0],"split_type":[0,0,0,0,0,0,0,0,0,0,0,0,0,0,0,0,0],"sum_hessian":[1.2335183E2,7.485192E1,4.8499912E1,6.2334698E1,1.251722E1,2.5789135E1,2.2710775E1,8.240663E0,4.2765574E0,1.6914688E1,5.796088E0,2.7686982E0,1.5078592E0,3.1017265E0,1.3812962E1,1.0359378E0,1.2777023E1],"tree_param":{"num_deleted":"0","num_feature":"9","num_nodes":"17","size_leaf_vector":"1"}},{"base_weights":[-4.4579883E-3,3.750532E0,-5.175609E-2,-3.1098409E-2,4.2051315E-1],"categories":[],"categories_nodes":[],"categories_segments":[],"categories_sizes":[],"default_left":[0,0,0,0,0],"id":25,"left_children":[1,3,-1,-1,-1],"loss_changes":[2.438031E2,2.9395538E1,0E0,0E0,0E0],"parents":[2147483647,0,0,1,1],"right_children":[2,4,-1,-1,-1],"split_conditions":[2.0396597E1,2.5E1,-5.175609E-2,-3.1098409E-2,4.2051315E-1],"split_indices":[4,2,0,0,0],"split_type":[0,0,0,0,0],"sum_hessian":[1.2453196E2,1.4212503E1,1.1031946E2,1.4624556E0,1.2750049E1],"tree_param":{"num_deleted":"0","num_feature":"9","num_nodes":"5","size_leaf_vector":"1"}},{"base_weights":[2.4736368E-3,-5.1626403E-2,1.3418583E0,4.3245034E0,-4.0948185E-1,1.08084574E-1,4.5665118E-1,5.5332404E-2,-4.97326E-2],"categories":[],"categories_nodes":[],"categories_segments":[],"categories_sizes":[],"default_left":[0,0,0,0,0,0,0,0,0],"id":26,"left_children":[1,-1,3,5,7,-1,-1,-1,-1],"loss_changes":[8.4300644E1,0E0,1.7870708E2,4.968979E0,2.157417E0,0E0,0E0,0E0,0E0],"parents":[2147483647,0,0,2,2,3,3,4,4],"right_children":[2,-1,4,6,8,-1,-1,-1,-1],"split_conditions":[1.3037971E2,-5.1626403E-2,9.2E1,2.6E1,1E2,1.08084574E-1,4.5665118E-1,5.5332404E-2,-4.97326E-2],"split_indices":[6,0,7,2,7,0,0,0,0],"split_type":[0,0,0,0,0,0,0,0,0],"sum_hessian":[1.1933563E2,8.6463326E1,3.2872307E1,1.1617575E1,2.1254732E1,1.1861161E0,1.0431458E1,1.3340535E0,1.992068E1],"tree_param":{"num_deleted":"0","num_feature":"9","num_nodes":"9","size_leaf_vector":"1"}},{"base_weights":[-4.2629223E-3,-4.861729E-1,1.5035259E0,-5.16905E-2,2.3420992E-1,4.270221E0,-4.9423322E-2,1.1865242E-1,-3.7921254E-2,1.12194076E-1,4.476056E-1],"categories":[],"categories_nodes":[],"categories_segments":[],"categories_sizes":[],"default_left":[0,0,0,0,0,0,0,0,0,0,0],"id":27,"left_children":[1,3,5,-1,7,9,-1,-1,-1,-1,-1],"loss_changes":[9.2004196E1,2.2451897E0,1.7161998E2,0E0,3.1452038E0,3.37854E0,0E0,0E0,0E0,0E0,0E0],"parents":[2147483647,0,0,1,1,2,2,4,4,5,5],"right_children":[2,4,6,-1,8,10,-1,-1,-1,-1,-1],"split_conditions":[2.3142858E0,2.125E0,7.095706E1,-5.16905E-2,7.5683395E1,1.2166228E2,-4.9423322E-2,1.1865242E-1,-3.7921254E-2,1.12194076E-1,4.476056E-1],"split_indices":[8,8,4,0,4,6,0,0,0,0,0],"split_type":[0,0,0,0,0,0,0,0,0,0,0],"sum_hessian":[1.24613686E2,9.49454E1,2.9668291E1,9.133157E1,3.6138194E0,1.1963099E1,1.7705193E1,1.0497911E0,2.5640283E0,1.1300145E0,1.0833084E1],"tree_param":{"num_deleted":"0","num_feature":"9","num_nodes":"11","size_leaf_vector":"1"}},{"base_weights":[-7.6207374E-3,-5.169403E-2,1.9875569E0,-4.6624597E-2,3.1496072E0,3.9923234E0,-4.006484E-2,6.5106325E-2,4.2363358E-1],"categories":[],"categories_nodes":[],"categories_segments":[],"categories_sizes":[],"default_left":[0,0,0,0,0,0,0,0,0],"id":28,"left_children":[1,-1,3,-1,5,7,-1,-1,-1],"loss_changes":[1.2548248E2,0E0,7.307612E1,0E0,5.2972885E1,8.630341E0,0E0,0E0,0E0],"parents":[2147483647,0,0,2,2,4,4,5,5],"right_children":[2,-1,4,-1,6,8,-1,-1,-1],"split_conditions":[1E2,-5.169403E-2,3.5E1,-4.6624597E-2,1.0000757E2,5.9190454E0,-4.006484E-2,6.5106325E-2,4.2363358E-1],"split_indices":[0,0,1,0,6,5,0,0,0],"split_type":[0,0,0,0,0,0,0,0,0],"sum_hessian":[1.21473045E2,9.7360275E1,2.4112768E1,7.9417095E0,1.6171059E1,1.2968288E1,3.2027707E0,1.1322703E0,1.1836019E1],"tree_param":{"num_deleted":"0","num_feature":"9","num_nodes":"9","size_leaf_vector":"1"}},{"base_weights":[3.500928E-2,-5.1723152E-2,2.8897011E0,4.15096E-1,-4.413E-2],"categories":[],"categories_nodes":[],"categories_segments":[],"categories_sizes":[],"default_left":[0,0,0,0,0],"id":29,"left_children":[1,-1,3,-1,-1],"loss_changes":[1.9658377E2,0E0,8.674278E1,0E0,0E0],"parents":[2147483647,0,0,2,2],"right_children":[2,-1,4,-1,-1],"split_conditions":[1.95E2,-5.1723152E-2,8.404404E1,4.15096E-1,-4.413E-2],"split_indices":[2,0,4,0,0],"split_type":[0,0,0,0,0],"sum_hessian":[1.2275004E2,1.0353918E2,1.9210863E1,1.3756071E1,5.454793E0],"tree_param":{"num_deleted":"0","num_feature":"9","num_nodes":"5","size_leaf_vector":"1"}},{"base_weights":[-1.440282E-2,-5.1693883E-2,1.5683191E0,-4.7192108E-2,2.5294478E0,3.6226108E0,-4.4870507E-2,-3.890202E-2,4.613876E0,1.1710753E-1,4.8420486E-1],"categories":[],"categories_nodes":[],"categories_segments":[],"categories_sizes":[],"default_left":[0,0,0,0,0,0,0,0,0,0,0],"id":30,"left_children":[1,-1,3,-1,5,7,-1,-1,9,-1,-1],"loss_changes":[9.82583E1,0E0,5.9578606E1,0E0,6.8029205E1,6.1564392E1,0E0,0E0,3.858368E0,0E0,0E0],"parents":[2147483647,0,0,2,2,4,4,5,5,8,8],"right_children":[2,-1,4,-1,6,8,-1,-1,10,-1,-1],"split_conditions":[1.4922203E2,-5.1693883E-2,5.9E1,-4.7192108E-2,2.0008827E2,6.940732E1,-4.4870507E-2,-3.890202E-2,6.0434856E0,1.1710753E-1,4.8420486E-1],"split_indices":[6,0,0,0,6,4,0,0,5,0,0],"split_type":[0,0,0,0,0,0,0,0,0,0,0],"sum_hessian":[1.2151781E2,9.274377E1,2.8774036E1,9.377308E0,1.9396729E1,1.4030345E1,5.366383E0,2.9003272E0,1.1130018E1,1.0729623E0,1.0057055E1],"tree_param":{"num_deleted":"0","num_feature":"9","num_nodes":"11","size_leaf_vector":"1"}},{"base_weights":[8.68767E-3,3.2978668E0,-5.1817752E-2,4.9312454E-1,-4.377677E-2],"categories":[],"categories_nodes":[],"categories_segments":[],"categories_sizes":[],"default_left":[0,0,0,0,0],"id":31,"left_children":[1,3,-1,-1,-1],"loss_changes":[2.175075E2,1.07892975E2,0E0,0E0,0E0],"parents":[2147483647,0,0,1,1],"right_children":[2,4,-1,-1,-1],"split_conditions":[3.413308E1,5.986442E0,-5.1817752E-2,4.9312454E-1,-4.377677E-2],"split_indices":[4,5,0,0,0],"split_type":[0,0,0,0,0],"sum_hessian":[1.2352646E2,1.6328632E1,1.0719782E2,1.1138396E1,5.1902366E0],"tree_param":{"num_deleted":"0","num_feature":"9","num_nodes":"5","size_leaf_vector":"1"}},{"base_weights":[-9.862014E-3,1.5898033E0,-5.16675E-2,-4.924765E-2,3.7613978E0,4.176704E0,-2.9538242E-2,5.980879E-2,4.489607E-1],"categories":[],"categories_nodes":[],"categories_segments":[],"categories_sizes":[],"default_left":[0,0,0,0,0,0,0,0,0],"id":32,"left_children":[1,3,-1,-1,5,7,-1,-1,-1],"loss_changes":[1.0062252E2,1.3688818E2,0E0,0E0,2.6057098E1,1.2354843E1,0E0,0E0,0E0],"parents":[2147483647,0,0,1,1,4,4,5,5],"right_children":[2,4,-1,-1,6,8,-1,-1,-1],"split_conditions":[5.521607E1,5.5E1,-5.16675E-2,-4.924765E-2,6.971184E1,6.0396473E1,-2.9538242E-2,5.980879E-2,4.489607E-1],"split_indices":[6,1,0,0,4,4,0,0,0],"split_type":[0,0,0,0,0,0,0,0,0],"sum_hessian":[1.22100136E2,2.8862837E1,9.32373E1,1.51291485E1,1.3733688E1,1.2431477E1,1.302212E0,1.2336676E0,1.1197809E1],"tree_param":{"num_deleted":"0","num_feature":"9","num_nodes":"9","size_leaf_vector":"1"}},{"base_weights":[9.703817E-3,6.415209E-1,-5.1455468E-2,-5.0787795E-2,2.4552066E0,4.109041E0,-4.6376463E-2,4.4470382E-1,1.6712194E-2],"categories":[],"categories_nodes":[],"categories_segments":[],"categories_sizes":[],"default_left":[0,0,0,0,0,0,0,0,0],"id":33,"left_children":[1,3,-1,-1,5,7,-1,-1,-1],"loss_changes":[4.1467094E1,1.1958011E2,0E0,0E0,1.0903041E2,1.8264679E1,0E0,0E0,0E0],"parents":[2147483647,0,0,1,1,4,4,5,5],"right_children":[2,4,-1,-1,6,8,-1,-1,-1],"split_conditions":[2.6E1,1E0,-5.1455468E-2,-5.0787795E-2,7.51464E1,2.4489796E0,-4.6376463E-2,4.4470382E-1,1.6712194E-2],"split_indices":[2,8,0,0,4,8,0,0,0],"split_type":[0,0,0,0,0,0,0,0,0],"sum_hessian":[1.23192604E2,5.576409E1,6.742851E1,3.4573547E1,2.1190546E1,1.3266367E1,7.924179E0,1.2100665E1,1.1657014E0],"tree_param":{"num_deleted":"0","num_feature":"9","num_nodes":"9","size_leaf_vector":"1"}},{"base_weights":[7.523527E-3,1.5025071E0,-5.1650465E-2,3.6962857E0,-4.3852547E-1,4.3167815E-1,-3.531238E-2,2.203561E-2,-4.9207322E-2],"categories":[],"categories_nodes":[],"categories_segments":[],"categories_sizes":[],"default_left":[0,0,0,0,0,0,0,0,0],"id":34,"left_children":[1,3,-1,5,7,-1,-1,-1,-1],"loss_changes":[9.696844E1,1.3841374E2,0E0,3.9682648E1,7.413161E-1,0E0,0E0,0E0,0E0],"parents":[2147483647,0,0,1,1,3,3,4,4],"right_children":[2,4,-1,6,8,-1,-1,-1,-1],"split_conditions":[5.5187923E1,3.9E1,-5.1650465E-2,4.1E1,8E1,4.3167815E-1,-3.531238E-2,2.203561E-2,-4.9207322E-2],"split_indices":[4,1,0,0,7,0,0,0,0],"split_type":[0,0,0,0,0,0,0,0,0],"sum_hessian":[1.2178622E2,3.11246E1,9.066162E1,1.4186526E1,1.6938074E1,1.2244292E1,1.942234E0,1.0389626E0,1.5899111E1],"tree_param":{"num_deleted":"0","num_feature":"9","num_nodes":"9","size_leaf_vector":"1"}},{"base_weights":[3.560985E-2,-1.5956852E-1,4.1557965E0,3.1856043E0,-2.7025414E-1,5.2230966E-1,-2.6742658E-2,4.3360683E-1,1.9047515E-2,3.2155728E-1,-4.8152578E-1,3.0851445E-1,7.902532E-3,-1.5431234E-1,-5.155588E-2,6.2231225E-1,-4.3527544E-1,1.1656181E-1,-4.6058293E-2,2.8499572E-3,2.0386696E-1,-4.8964135E-2,8.979029E-3],"categories":[],"categories_nodes":[],"categories_segments":[],"categories_sizes":[],"default_left":[0,0,0,0,0,0,0,0,0,0,0,0,0,0,0,0,0,0,0,0,0,0,0],"id":35,"left_children":[1,3,5,7,9,-1,-1,-1,-1,11,13,-1,15,17,-1,19,21,-1,-1,-1,-1,-1,-1],"loss_changes":[1.0053822E2,4.5122856E1,2.8089783E1,1.2636581E1,1.4738076E1,0E0,0E0,0E0,0E0,2.7092508E1,8.820591E-1,0E0,8.193891E0,4.4024997E0,0E0,1.0543115E1,5.433049E-1,0E0,0E0,0E0,0E0,0E0,0E0],"parents":[2147483647,0,0,1,1,2,2,3,3,4,4,9,9,10,10,12,12,13,13,15,15,16,16],"right_children":[2,4,6,8,10,-1,-1,-1,-1,12,14,-1,16,18,-1,20,22,-1,-1,-1,-1,-1,-1],"split_conditions":[8.016211E0,4.684079E0,2.6E1,7.2431694E1,6.455882E1,5.2230966E-1,-2.6742658E-2,4.3360683E-1,1.9047515E-2,5.956027E0,7.088787E1,3.0851445E-1,1.07E2,1.15E2,-5.155588E-2,2.3E1,2.9980804E1,1.1656181E-1,-4.6058293E-2,2.8499572E-3,2.0386696E-1,-4.8964135E-2,8.979029E-3],"split_indices":[5,5,2,6,6,0,0,0,0,5,6,0,7,7,0,2,3,0,0,0,0,0,0],"split_type":[0,0,0,0,0,0,0,0,0,0,0,0,0,0,0,0,0,0,0,0,0,0,0],"sum_hessian":[1.23196266E2,1.1854205E2,4.654213E0,2.906942E0,1.1563512E2,3.6038005E0,1.0504123E0,1.7767607E0,1.1301812E0,3.0283464E1,8.535165E1,2.1860693E0,2.8097395E1,8.56235E0,7.67893E1,1.1604723E1,1.6492672E1,1.0841516E0,7.4781985E0,8.895412E0,2.7093103E0,1.5006363E1,1.4863094E0],"tree_param":{"num_deleted":"0","num_feature":"9","num_nodes":"23","size_leaf_vector":"1"}},{"base_weights":[3.9010227E-2,1.5085244E0,-5.164158E-2,2.6904237E0,-4.8348647E-2,-4.23504E-2,3.4748962E0,3.9513454E0,-3.387224E-2,1.8960807E-2,4.2342803E-1],"categories":[],"categories_nodes":[],"categories_segments":[],"categories_sizes":[],"default_left":[0,0,0,0,0,0,0,0,0,0,0],"id":36,"left_children":[1,3,-1,5,-1,-1,7,9,-1,-1,-1],"loss_changes":[1.0117478E2,8.133433E1,0E0,5.396118E1,0E0,0E0,3.272203E1,1.56228485E1,0E0,0E0,0E0],"parents":[2147483647,0,0,1,1,3,3,6,6,7,7],"right_children":[2,4,-1,6,-1,-1,8,10,-1,-1,-1],"split_conditions":[6.0745834E1,1.14E2,-5.164158E-2,2.6904358E1,-4.8348647E-2,-4.23504E-2,7.1995044E0,6.2206435E0,-3.387224E-2,1.8960807E-2,4.2342803E-1],"split_indices":[6,7,0,3,0,0,5,5,0,0,0],"split_type":[0,0,0,0,0,0,0,0,0,0,0],"sum_hessian":[1.2200291E2,3.299381E1,8.90091E1,2.048754E1,1.2506269E1,4.2152877E0,1.6272253E1,1.4432974E1,1.8392792E0,1.1264517E0,1.3306521E1],"tree_param":{"num_deleted":"0","num_feature":"9","num_nodes":"11","size_leaf_vector":"1"}},{"base_weights":[-2.9278142E-2,4.1171718E-1,-5.1756423E-2],"categories":[],"categories_nodes":[],"categories_segments":[],"categories_sizes":[],"default_left":[0,0,0],"id":37,"left_children":[1,-1,-1],"loss_changes":[2.5285814E2,0E0,0E0],"parents":[2147483647,0,0],"right_children":[2,-1,-1],"split_conditions":[3.2678917E1,4.1171718E-1,-5.1756423E-2],"split_indices":[6,0,0],"split_type":[0,0,0],"sum_hessian":[1.2283709E2,1.2158353E1,1.1067874E2],"tree_param":{"num_deleted":"0","num_feature":"9","num_nodes":"3","size_leaf_vector":"1"}},{"base_weights":[-4.680745E-2,3.6287942E0,-4.1988274E-1,3.8835979E0,9.774096E-2,3.3672222E-1,-5.1700313E-2,1.150462E-1,4.088536E-1,-3.6427656E-1,1.6998422E0,1.828289E-2,-4.6071943E-2,2.8916E-1,-3.2462828E-2],"categories":[],"categories_nodes":[],"categories_segments":[],"categories_sizes":[],"default_left":[0,0,0,0,0,0,0,0,0,0,0,0,0,0,0],"id":38,"left_children":[1,3,5,7,-1,9,-1,-1,-1,11,13,-1,-1,-1,-1],"loss_changes":[1.6906508E2,3.8802338E0,8.390596E0,9.1415405E-1,0E0,1.3352775E1,0E0,0E0,0E0,5.920286E-1,1.2283431E1,0E0,0E0,0E0,0E0],"parents":[2147483647,0,0,1,1,2,2,3,3,5,5,9,9,10,10],"right_children":[2,4,6,8,-1,10,-1,-1,-1,12,14,-1,-1,-1,-1],"split_conditions":[5.6E1,1.19102516E2,7.8E1,9.017016E1,9.774096E-2,2.4E1,-5.1700313E-2,1.150462E-1,4.088536E-1,2.0611622E1,1.1963355E2,1.828289E-2,-4.6071943E-2,2.8916E-1,-3.2462828E-2],"split_indices":[7,6,7,4,0,0,0,0,0,3,6,0,0,0,0],"split_type":[0,0,0,0,0,0,0,0,0,0,0,0,0,0,0],"sum_hessian":[1.21179184E2,1.0362209E1,1.1081698E2,9.029694E0,1.3325156E0,1.2325962E1,9.849101E1,1.0911663E0,7.938528E0,8.62383E0,3.7021325E0,1.1581428E0,7.465687E0,2.0607142E0,1.6414182E0],"tree_param":{"num_deleted":"0","num_feature":"9","num_nodes":"15","size_leaf_vector":"1"}},{"base_weights":[8.596026E-4,-2.9972047E-1,2.4572587E0,-5.1566858E-2,3.6994004E-1,-4.2950217E-2,4.1268706E0,-4.8556846E-2,1.2795436E0,1.14265E-1,4.4289723E-1,2.9608805E0,-4.502922E-2,3.6737034E-1,-2.7821286E-2],"categories":[],"categories_nodes":[],"categories_segments":[],"categories_sizes":[],"default_left":[0,0,0,0,0,0,0,0,0,0,0,0,0,0,0],"id":39,"left_children":[1,3,5,-1,7,-1,9,-1,11,-1,-1,13,-1,-1,-1],"loss_changes":[8.706952E1,1.5385289E1,6.373928E1,0E0,2.1011745E1,0E0,2.3677979E0,0E0,3.9070362E1,0E0,0E0,1.651886E1,0E0,0E0,0E0],"parents":[2147483647,0,0,1,1,2,2,4,4,6,6,8,8,11,11],"right_children":[2,4,6,-1,8,-1,10,-1,12,-1,-1,14,-1,-1,-1],"split_conditions":[3.2476482E1,9.017016E1,8.389242E1,-5.1566858E-2,3.2E1,-4.2950217E-2,3.5E1,-4.8556846E-2,1.2987013E0,1.14265E-1,4.4289723E-1,7.5E1,-4.502922E-2,3.6737034E-1,-2.7821286E-2],"split_indices":[3,4,4,0,0,0,0,0,8,0,0,2,0,0,0],"split_type":[0,0,0,0,0,0,0,0,0,0,0,0,0,0,0],"sum_hessian":[1.1592782E2,1.0407103E2,1.1856787E1,7.886808E1,2.5202946E1,4.616906E0,7.239881E0,1.32279E1,1.1975047E1,1.1051658E0,6.134715E0,5.7117662E0,6.263281E0,4.571538E0,1.1402283E0],"tree_param":{"num_deleted":"0","num_feature":"9","num_nodes":"15","size_leaf_vector":"1"}},{"base_weights":[-3.142119E-2,2.100868E0,-1.7712769E-1,3.2579768E0,-3.6804177E-2,3.7309724E-1,-4.8807603E-1,-2.9085085E-2,4.3999377E-1,-2.2646694E-1,2.1441972E0,-7.909535E-2,-5.0094057E-2,-4.970741E-2,2.5160557E-1,3.0863066E0,-3.838907E-2,-3.0651638E-2,2.3512064E-2,1.3595935E0,-4.606205E-2,1.0664259E0,3.8070756E-1,2.4317239E-1,-4.3737195E-3,1.1691536E-2,1.628357E-1],"categories":[],"categories_nodes":[],"categories_segments":[],"categories_sizes":[],"default_left":[0,0,0,0,0,0,0,0,0,0,0,0,0,0,0,0,0,0,0,0,0,0,0,0,0,0,0],"id":40,"left_children":[1,3,5,7,-1,9,11,-1,-1,13,15,17,-1,-1,19,21,-1,-1,-1,23,-1,25,-1,-1,-1,-1,-1],"loss_changes":[3.782281E1,2.3447437E1,1.9644299E1,2.3180752E1,0E0,4.4702824E1,3.450508E-1,0E0,0E0,4.266642E0,2.6494884E1,3.162547E-1,0E0,0E0,1.0281409E1,7.372032E0,0E0,0E0,0E0,7.690029E0,0E0,1.6526527E0,0E0,0E0,0E0,0E0,0E0],"parents":[2147483647,0,0,1,1,2,2,3,3,5,5,6,6,9,9,10,10,11,11,14,14,15,15,19,19,21,21],"right_children":[2,4,6,8,-1,10,12,-1,-1,14,16,18,-1,-1,20,22,-1,-1,-1,24,-1,26,-1,-1,-1,-1,-1],"split_conditions":[5.3915606E0,2.5E1,5.217391E-1,7.2850174E1,-3.6804177E-2,1.1836066E2,5.6236157E0,-2.9085085E-2,4.3999377E-1,9.131256E1,2.6E1,1.08E2,-5.0094057E-2,-4.970741E-2,2.6E1,2.1998983E1,-3.838907E-2,-3.0651638E-2,2.3512064E-2,1.03923225E2,-4.606205E-2,1.3541862E2,3.8070756E-1,2.4317239E-1,-4.3737195E-3,1.1691536E-2,1.628357E-1],"split_indices":[5,2,8,6,0,6,5,0,0,6,2,7,0,0,2,3,0,0,0,6,0,6,0,0,0,0,0],"split_type":[0,0,0,0,0,0,0,0,0,0,0,0,0,0,0,0,0,0,0,0,0,0,0,0,0,0,0],"sum_hessian":[1.1954101E2,6.7878714E0,1.12753136E2,4.4041624E0,2.3837092E0,4.0640198E1,7.211294E1,1.2536252E0,3.150537E0,3.1013456E1,9.626742E0,2.417138E0,6.96958E1,1.977839E1,1.1235064E1,6.852358E0,2.7743847E0,1.4164524E0,1.0006858E0,4.0404797E0,7.1945844E0,2.4542217E0,4.398136E0,1.8750994E0,2.1653802E0,1.3615808E0,1.0926409E0],"tree_param":{"num_deleted":"0","num_feature":"9","num_nodes":"27","size_leaf_vector":"1"}},{"base_weights":[-3.7369363E-2,1.0371593E0,-4.931061E-1,-4.8381668E-2,1.8533769E0,1.2347503E-1,-5.1597483E-2,3.3644853E0,-4.7186103E-2,5.3413898E-2,-3.1473428E-2,-1.9542715E-3,3.9029593E0,4.0649658E-1,1.1462294E-1],"categories":[],"categories_nodes":[],"categories_segments":[],"categories_sizes":[],"default_left":[0,0,0,0,0,0,0,0,0,0,0,0,0,0,0],"id":41,"left_children":[1,3,5,-1,7,9,-1,11,-1,-1,-1,-1,13,-1,-1],"loss_changes":[6.0167065E1,4.6336384E1,1.2794209E0,0E0,8.600958E1,8.682032E-1,0E0,2.6836731E1,0E0,0E0,0E0,0E0,1.0012207E0,0E0,0E0],"parents":[2147483647,0,0,1,1,2,2,4,4,5,5,7,7,12,12],"right_children":[2,4,6,-1,8,10,-1,12,-1,-1,-1,-1,14,-1,-1],"split_conditions":[2.9E1,1.01595276E2,3.1E1,-4.8381668E-2,1.1267383E2,1.1101968E2,-5.1597483E-2,5.4E1,-4.7186103E-2,5.3413898E-2,-3.1473428E-2,-1.9542715E-3,7.12405E0,4.0649658E-1,1.1462294E-1],"split_indices":[1,6,1,0,6,6,0,7,0,0,0,0,5,0,0],"split_type":[0,0,0,0,0,0,0,0,0,0,0,0,0,0,0],"sum_hessian":[1.2082023E2,3.560219E1,8.521805E1,1.2575565E1,2.302662E1,2.8903303E0,8.232771E1,1.368571E1,9.340911E0,1.3790516E0,1.5112787E0,2.011046E0,1.16746645E1,1.0578435E1,1.0962299E0],"tree_param":{"num_deleted":"0","num_feature":"9","num_nodes":"15","size_leaf_vector":"1"}},{"base_weights":[-3.948659E-3,-5.1712163E-2,2.6049685E0,-4.2437285E-2,3.455113E0,3.789344E0,-2.8825581E-2,1.7719185E0,4.278833E-1,2.614641E-1,3.5282914E-2],"categories":[],"categories_nodes":[],"categories_segments":[],"categories_sizes":[],"default_left":[0,0,0,0,0,0,0,0,0,0,0],"id":42,"left_children":[1,-1,3,-1,5,7,-1,9,-1,-1,-1],"loss_changes":[1.6450848E2,0E0,5.3481308E1,0E0,2.0961182E1,6.8847504E0,0E0,4.5393934E0,0E0,0E0,0E0],"parents":[2147483647,0,0,2,2,4,4,5,5,7,7],"right_children":[2,-1,4,-1,6,8,-1,10,-1,-1,-1],"split_conditions":[1.8244824E2,-5.1712163E-2,5.7E1,-4.2437285E-2,2.612903E0,1.9387787E2,-2.8825581E-2,1.8650085E2,4.278833E-1,2.614641E-1,3.5282914E-2],"split_indices":[6,0,0,0,8,6,0,6,0,0,0],"split_type":[0,0,0,0,0,0,0,0,0,0,0],"sum_hessian":[1.2086905E2,1.0167199E2,1.9197054E1,4.316562E0,1.4880491E1,1.3649498E1,1.2309934E0,3.5672078E0,1.008229E1,1.7095304E0,1.8576775E0],"tree_param":{"num_deleted":"0","num_feature":"9","num_nodes":"11","size_leaf_vector":"1"}},{"base_weights":[9.19234E-3,-5.1698845E-2,2.0562737E0,2.9736667E0,-4.546801E-2,-4.357703E-2,4.2340526E-1],"categories":[],"categories_nodes":[],"categories_segments":[],"categories_sizes":[],"default_left":[0,0,0,0,0,0,0],"id":43,"left_children":[1,-1,3,5,-1,-1,-1],"loss_changes":[1.348352E2,0E0,6.031282E1,8.297307E1,0E0,0E0,0E0],"parents":[2147483647,0,0,2,2,3,3],"right_children":[2,-1,4,6,-1,-1,-1],"split_conditions":[2.9333334E0,-5.1698845E-2,2.7022692E1,4.5E1,-4.546801E-2,-4.357703E-2,4.2340526E-1],"split_indices":[8,0,3,2,0,0,0],"split_type":[0,0,0,0,0,0,0],"sum_hessian":[1.23192566E2,9.8596756E1,2.4595812E1,1.7879238E1,6.7165723E0,5.002194E0,1.2877045E1],"tree_param":{"num_deleted":"0","num_feature":"9","num_nodes":"7","size_leaf_vector":"1"}},{"base_weights":[-1.878656E-2,-5.1552504E-2,2.073577E0,-4.3773018E-2,2.8217104E-1],"categories":[],"categories_nodes":[],"categories_segments":[],"categories_sizes":[],"default_left":[0,0,0,0,0],"id":44,"left_children":[1,-1,3,-1,-1],"loss_changes":[1.2560933E2,0E0,4.4801155E1,0E0,0E0],"parents":[2147483647,0,0,2,2],"right_children":[2,-1,4,-1,-1],"split_conditions":[1.2E2,-5.1552504E-2,8.404404E1,-4.3773018E-2,2.8217104E-1],"split_indices":[1,0,4,0,0],"split_type":[0,0,0,0,0],"sum_hessian":[1.18824356E2,9.663605E1,2.2188307E1,5.188072E0,1.7000235E1],"tree_param":{"num_deleted":"0","num_feature":"9","num_nodes":"5","size_leaf_vector":"1"}},{"base_weights":[-3.0211817E-2,-4.942634E-1,1.5739934E0,-5.152142E-2,1.7308636E-1,-4.7410805E-2,2.814447E-1,-3.1938937E-2,7.05783E-2],"categories":[],"categories_nodes":[],"categories_segments":[],"categories_sizes":[],"default_left":[0,0,0,0,0,0,0,0,0],"id":45,"left_children":[1,3,5,-1,7,-1,-1,-1,-1],"loss_changes":[9.069732E1,1.409708E0,7.079414E1,0E0,1.1759822E0,0E0,0E0,0E0,0E0],"parents":[2147483647,0,0,1,1,2,2,4,4],"right_children":[2,4,6,-1,8,-1,-1,-1,-1],"split_conditions":[2.1E2,1.98E2,6.1E1,-5.152142E-2,2.355882E1,-4.7410805E-2,2.814447E-1,-3.1938937E-2,7.05783E-2],"split_indices":[7,7,0,0,3,0,0,0,0],"split_type":[0,0,0,0,0,0,0,0,0],"sum_hessian":[1.1978889E2,9.344869E1,2.6340193E1,9.0825294E1,2.6233974E0,1.0168639E1,1.6171553E1,1.5712306E0,1.0521667E0],"tree_param":{"num_deleted":"0","num_feature":"9","num_nodes":"9","size_leaf_vector":"1"}},{"base_weights":[1.9020887E-2,6.7421806E-1,-5.1342707E-2,-5.007377E-2,1.5721931E0,-4.6531424E-2,2.3245902E0,-3.814813E-2,2.7022564E0,3.955964E-1,3.0401233E-1,-3.3024304E-2,1.0848602E-1],"categories":[],"categories_nodes":[],"categories_segments":[],"categories_sizes":[],"default_left":[0,0,0,0,0,0,0,0,0,0,0,0,0],"id":46,"left_children":[1,3,-1,-1,5,-1,7,-1,9,11,-1,-1,-1],"loss_changes":[4.316812E1,5.930559E1,0E0,0E0,4.9645546E1,0E0,2.4845482E1,0E0,1.4830078E1,2.248329E0,0E0,0E0,0E0],"parents":[2147483647,0,0,1,1,4,4,6,6,8,8,9,9],"right_children":[2,4,-1,-1,6,-1,8,-1,10,12,-1,-1,-1],"split_conditions":[7.582271E1,5.9870655E1,-5.1342707E-2,-5.007377E-2,6.5003433E0,-4.6531424E-2,2.5011576E1,-3.814813E-2,5.8E1,3.8E1,3.0401233E-1,-3.3024304E-2,1.0848602E-1],"split_indices":[6,6,0,0,5,0,3,0,1,0,0,0,0],"split_type":[0,0,0,0,0,0,0,0,0,0,0,0,0],"sum_hessian":[1.2174882E2,5.4463356E1,6.728546E1,2.378467E1,3.0678686E1,8.376501E0,2.2302185E1,2.7301168E0,1.957207E1,2.7778943E0,1.6794174E1,1.6067541E0,1.1711403E0],"tree_param":{"num_deleted":"0","num_feature":"9","num_nodes":"13","size_leaf_vector":"1"}},{"base_weights":[7.7319047E-3,2.6371055E0,-5.1576864E-2,-3.0210454E-2,2.8664285E-1],"categories":[],"categories_nodes":[],"categories_segments":[],"categories_sizes":[],"default_left":[0,0,0,0,0],"id":47,"left_children":[1,3,-1,-1,-1],"loss_changes":[1.6823717E2,1.4544205E1,0E0,0E0,0E0],"parents":[2147483647,0,0,1,1],"right_children":[2,4,-1,-1,-1],"split_conditions":[2.0396597E1,2.5E1,-5.1576864E-2,-3.0210454E-2,2.8664285E-1],"split_indices":[4,2,0,0,0],"split_type":[0,0,0,0,0],"sum_hessian":[1.2023475E2,1.92933E1,1.0094145E2,1.3733839E0,1.7919916E1],"tree_param":{"num_deleted":"0","num_feature":"9","num_nodes":"5","size_leaf_vector":"1"}},{"base_weights":[3.815744E-2,-2.2910589E-1,2.9461277E-1,-5.0334567E-1,6.387709E-1,2.1913165E-2,-5.14809E-2,-4.9110707E-2,2.3504355E0,2.9025862E-1,-3.3459254E-2],"categories":[],"categories_nodes":[],"categories_segments":[],"categories_sizes":[],"default_left":[0,0,0,0,0,0,0,0,0,0,0],"id":48,"left_children":[1,3,-1,5,7,-1,-1,-1,9,-1,-1],"loss_changes":[9.562252E1,2.7171497E1,0E0,8.2741356E-1,5.439389E1,0E0,0E0,0E0,1.7455528E1,0E0,0E0],"parents":[2147483647,0,0,1,1,3,3,4,4,8,8],"right_children":[2,4,-1,6,8,-1,-1,-1,10,-1,-1],"split_conditions":[9.4943306E1,9.071037E1,2.9461277E-1,8E0,1.2825687E2,2.1913165E-2,-5.14809E-2,-4.9110707E-2,3.1E1,2.9025862E-1,-3.3459254E-2],"split_indices":[4,4,0,1,6,0,0,0,1,0,0],"split_type":[0,0,0,0,0,0,0,0,0,0,0],"sum_hessian":[1.21167145E2,1.1181203E2,9.355114E0,8.528341E1,2.6528618E1,1.049087E0,8.423432E1,1.6409626E1,1.0118991E1,8.325835E0,1.7931553E0],"tree_param":{"num_deleted":"0","num_feature":"9","num_nodes":"11","size_leaf_vector":"1"}},{"base_weights":[-2.31065E-2,-5.150045E-2,1.0795342E0,2.8999472E-1,-4.967713E-2],"categories":[],"categories_nodes":[],"categories_segments":[],"categories_sizes":[],"default_left":[0,0,0,0,0],"id":49,"left_children":[1,-1,3,-1,-1],"loss_changes":[6.6324066E1,0E0,1.0970618E2,0E0,0E0],"parents":[2147483647,0,0,2,2],"right_children":[2,-1,4,-1,-1],"split_conditions":[2.097561E0,-5.150045E-2,7.095706E1,2.8999472E-1,-4.967713E-2],"split_indices":[8,0,4,0,0],"split_type":[0,0,0,0,0],"sum_hessian":[1.2025684E2,8.3527435E1,3.672941E1,1.665523E1,2.0074179E1],"tree_param":{"num_deleted":"0","num_feature":"9","num_nodes":"5","size_leaf_vector":"1"}},{"base_weights":[-3.0971136E-2,-5.02322E-1,8.83072E-1,-5.143077E-2,-5.3976107E-2,2.2793927E0,-4.9682375E-2,2.1443019E-2,-2.8126022E-2,2.7098303E0,-3.9033957E-2,-2.7872816E-2,2.9240713E-1],"categories":[],"categories_nodes":[],"categories_segments":[],"categories_sizes":[],"default_left":[0,0,0,0,0,0,0,0,0,0,0,0,0],"id":50,"left_children":[1,3,5,-1,7,9,-1,-1,-1,11,-1,-1,-1],"loss_changes":[5.2570004E1,4.0462875E-1,8.114498E1,0E0,2.5627348E-1,2.4982445E1,0E0,0E0,0E0,1.2374924E1,0E0,0E0,0E0],"parents":[2147483647,0,0,1,1,2,2,4,4,5,5,9,9],"right_children":[2,4,6,-1,8,10,-1,-1,-1,12,-1,-1,-1],"split_conditions":[1.8181819E0,1.7068965E0,2.6E1,-5.143077E-2,1.1196846E2,1.0000757E2,-4.9682375E-2,2.1443019E-2,-2.8126022E-2,7.3653465E1,-3.9033957E-2,-2.7872816E-2,2.9240713E-1],"split_indices":[8,8,2,0,6,6,0,0,0,4,0,0,0],"split_type":[0,0,0,0,0,0,0,0,0,0,0,0,0],"sum_hessian":[1.1998927E2,7.946266E1,4.052661E1,7.725039E1,2.212268E0,1.9819422E1,2.0707191E1,1.0403012E0,1.171967E0,1.7054695E1,2.7647252E0,1.1206849E0,1.59340105E1],"tree_param":{"num_deleted":"0","num_feature":"9","num_nodes":"13","size_leaf_vector":"1"}},{"base_weights":[2.5186518E-2,-5.15605E-2,2.168073E0,1.6281828E0,2.6916823E-1,2.5969854E-1,7.263211E-3,-3.9084975E-2,4.5640236E-1,7.5467653E-3,7.041616E-2],"categories":[],"categories_nodes":[],"categories_segments":[],"categories_sizes":[],"default_left":[0,0,0,0,0,0,0,0,0,0,0],"id":51,"left_children":[1,-1,3,5,-1,-1,7,-1,9,-1,-1],"loss_changes":[1.4331252E2,0E0,2.6615982E0,2.322123E1,0E0,0E0,1.3476377E0,0E0,2.8039575E-1,0E0,0E0],"parents":[2147483647,0,0,2,2,3,3,6,6,8,8],"right_children":[2,-1,4,6,-1,-1,8,-1,10,-1,-1],"split_conditions":[1.2E2,-5.15605E-2,2.389069E1,2.1131607E1,2.6916823E-1,2.5969854E-1,6.0002484E0,-3.9084975E-2,6.32548E0,7.5467653E-3,7.041616E-2],"split_indices":[1,0,3,3,0,0,5,0,5,0,0],"split_type":[0,0,0,0,0,0,0,0,0,0,0],"sum_hessian":[1.21702736E2,9.7784615E1,2.3918118E1,1.3799293E1,1.0118824E1,8.260143E0,5.5391493E0,3.0051718E0,2.5339773E0,1.5127282E0,1.021249E0],"tree_param":{"num_deleted":"0","num_feature":"9","num_nodes":"11","size_leaf_vector":"1"}},{"base_weights":[-5.9356768E-2,-5.1522184E-2,1.1364261E0,1.7340422E0,-3.8059077E-1,-4.555362E-2,2.6390967E0,2.2043584E-2,-4.7093216E-2,2.8506052E0,-2.740996E-2,6.342993E-2,3.1146535E-1],"categories":[],"categories_nodes":[],"categories_segments":[],"categories_sizes":[],"default_left":[0,0,0,0,0,0,0,0,0,0,0,0,0],"id":52,"left_children":[1,-1,3,5,7,-1,9,-1,-1,11,-1,-1,-1],"loss_changes":[6.6353195E1,0E0,3.1132229E1,4.9342896E1,6.6411006E-1,0E0,1.1462776E1,0E0,0E0,7.5338745E0,0E0,0E0,0E0],"parents":[2147483647,0,0,2,2,3,3,4,4,6,6,9,9],"right_children":[2,-1,4,6,8,-1,10,-1,-1,12,-1,-1,-1],"split_conditions":[1.4922203E2,-5.1522184E-2,1.9737526E2,3.5E1,2.0008827E2,-4.555362E-2,2.7022692E1,2.2043584E-2,-4.7093216E-2,3.7E1,-2.740996E-2,6.342993E-2,3.1146535E-1],"split_indices":[6,0,6,2,6,0,3,0,0,1,0,0,0],"split_type":[0,0,0,0,0,0,0,0,0,0,0,0,0],"sum_hessian":[1.1964905E2,8.703722E1,3.261183E1,2.3292776E1,9.319055E0,6.957449E0,1.6335327E1,1.0295557E0,8.289498E0,1.5249634E1,1.0856925E0,1.9855973E0,1.3264036E1],"tree_param":{"num_deleted":"0","num_feature":"9","num_nodes":"13","size_leaf_vector":"1"}},{"base_weights":[4.978797E-2,2.3822157E0,-5.162924E-2,3.1202464E0,-4.3267053E-2,3.2593623E-1,5.865034E-2],"categories":[],"categories_nodes":[],"categories_segments":[],"categories_sizes":[],"default_left":[0,0,0,0,0,0,0],"id":53,"left_children":[1,3,-1,5,-1,-1,-1],"loss_changes":[1.6374368E2,5.1659424E1,0E0,4.8941345E0,0E0,0E0,0E0],"parents":[2147483647,0,0,1,1,3,3],"right_children":[2,4,-1,6,-1,-1,-1],"split_conditions":[3.413308E1,2.6E1,-5.162924E-2,2.4938963E1,-4.3267053E-2,3.2593623E-1,5.865034E-2],"split_indices":[4,2,0,4,0,0,0],"split_type":[0,0,0,0,0,0,0],"sum_hessian":[1.2208465E2,2.3216627E1,9.886802E1,1.8308E1,4.9086266E0,1.7083635E1,1.2243645E0],"tree_param":{"num_deleted":"0","num_feature":"9","num_nodes":"7","size_leaf_vector":"1"}},{"base_weights":[-2.0362394E-2,1.2724624E0,-5.1494237E-2,-4.8999526E-2,2.676401E0,2.8592737E0,-2.6347915E-2,1.858241E-2,3.0277795E-1],"categories":[],"categories_nodes":[],"categories_segments":[],"categories_sizes":[],"default_left":[0,0,0,0,0,0,0,0,0],"id":54,"left_children":[1,3,-1,-1,5,7,-1,-1,-1],"loss_changes":[7.774484E1,8.457103E1,0E0,0E0,1.0905869E1,7.4842834E0,0E0,0E0,0E0],"parents":[2147483647,0,0,1,1,4,4,5,5],"right_children":[2,4,-1,-1,6,8,-1,-1,-1],"split_conditions":[5.521607E1,5.6E1,-5.1494237E-2,-4.8999526E-2,6.971184E1,6.020017E1,-2.6347915E-2,1.858241E-2,3.0277795E-1],"split_indices":[6,1,0,0,4,4,0,0,0],"split_type":[0,0,0,0,0,0,0,0,0],"sum_hessian":[1.1956454E2,3.2648643E1,8.691589E1,1.4764618E1,1.7884026E1,1.6862524E1,1.0215011E0,1.1244936E0,1.573803E1],"tree_param":{"num_deleted":"0","num_feature":"9","num_nodes":"9","size_leaf_vector":"1"}},{"base_weights":[-2.9045109E-2,4.9175024E-1,-5.1241037E-2,-5.0571144E-2,1.8009249E0,2.7622092E0,-4.5871705E-2,2.9368693E-1,1.626555E-2],"categories":[],"categories_nodes":[],"categories_segments":[],"categories_sizes":[],"default_left":[0,0,0,0,0,0,0,0,0],"id":55,"left_children":[1,3,-1,-1,5,7,-1,-1,-1],"loss_changes":[3.011909E1,7.615615E1,0E0,0E0,5.5867874E1,7.5937653E0,0E0,0E0,0E0],"parents":[2147483647,0,0,1,1,4,4,5,5],"right_children":[2,4,-1,-1,6,8,-1,-1,-1],"split_conditions":[2.6E1,1E0,-5.1241037E-2,-5.0571144E-2,7.51464E1,2.5277777E0,-4.5871705E-2,2.9368693E-1,1.626555E-2],"split_indices":[2,8,0,0,4,8,0,0,0],"split_type":[0,0,0,0,0,0,0,0,0],"sum_hessian":[1.17645355E2,5.6621708E1,6.1023647E1,3.248504E1,2.4136671E1,1.677706E1,7.359613E0,1.5599212E1,1.1778464E0],"tree_param":{"num_deleted":"0","num_feature":"9","num_nodes":"9","size_leaf_vector":"1"}},{"base_weights":[-5.9662554E-3,7.9715914E-1,-5.1416248E-2,-4.959848E-2,1.720355E0,2.8822706E0,-4.7126405E-2,6.6402316E-2,2.9844758E-1],"categories":[],"categories_nodes":[],"categories_segments":[],"categories_sizes":[],"default_left":[0,0,0,0,0,0,0,0,0],"id":56,"left_children":[1,3,-1,-1,5,7,-1,-1,-1],"loss_changes":[4.9744408E1,5.72455E1,0E0,0E0,7.211062E1,2.1667938E0,0E0,0E0,0E0],"parents":[2147483647,0,0,1,1,4,4,5,5],"right_children":[2,4,-1,-1,6,8,-1,-1,-1],"split_conditions":[1.05E2,2.5E1,-5.1416248E-2,-4.959848E-2,1.0082596E2,8.979946E1,-4.7126405E-2,6.6402316E-2,2.9844758E-1],"split_indices":[7,2,0,0,6,6,0,0,0],"split_type":[0,0,0,0,0,0,0,0,0],"sum_hessian":[1.1987495E2,4.6236584E1,7.363837E1,1.9452179E1,2.6784407E1,1.7298336E1,9.486071E0,1.0921179E0,1.6206217E1],"tree_param":{"num_deleted":"0","num_feature":"9","num_nodes":"9","size_leaf_vector":"1"}},{"base_weights":[2.3133002E-2,-1.8025257E-1,2.8126276E0,1.5609428E0,-3.34605E-1,3.499923E-1,-3.0356495E-2,3.691929E-1,-4.300085E-2,2.3694377E-1,-5.032476E-1,3.0636296E0,-3.9968395E-1,-2.3038933E-1,-5.1517695E-2,1.2335836E-1,3.5993475E-1,2.8433558E-1,-4.9293004E-2,2.3209102E-2,-3.9686613E-2,7.041069E-2,-2.6919037E-2],"categories":[],"categories_nodes":[],"categories_segments":[],"categories_sizes":[],"default_left":[0,0,0,0,0,0,0,0,0,0,0,0,0,0,0,0,0,0,0,0,0,0,0],"id":57,"left_children":[1,3,5,7,9,-1,-1,-1,-1,11,13,15,17,19,-1,-1,-1,21,-1,-1,-1,-1,-1],"loss_changes":[6.817828E1,3.065318E1,1.855175E1,4.1068565E1,1.0124842E1,0E0,0E0,0E0,0E0,4.500869E1,1.4325714E-1,5.7807922E-2,1.4631786E0,4.909274E-1,0E0,0E0,0E0,9.150962E-1,0E0,0E0,0E0,0E0,0E0],"parents":[2147483647,0,0,1,1,2,2,3,3,4,4,9,9,10,10,11,11,12,12,13,13,17,17],"right_children":[2,4,6,8,10,-1,-1,-1,-1,12,14,16,18,20,-1,-1,-1,22,-1,-1,-1,-1,-1],"split_conditions":[8.016211E0,5.505394E0,2.6E1,7.2850174E1,6.1613674E1,3.499923E-1,-3.0356495E-2,3.691929E-1,-4.300085E-2,6.3299007E1,6.37385E1,4.6666667E-1,7.088787E1,6.2810693E0,-5.1517695E-2,1.2335836E-1,3.5993475E-1,1.37E2,-4.9293004E-2,2.3209102E-2,-3.9686613E-2,7.041069E-2,-2.6919037E-2],"split_indices":[5,5,2,6,4,0,0,0,0,6,4,8,6,5,0,0,0,7,0,0,0,0,0],"split_type":[0,0,0,0,0,0,0,0,0,0,0,0,0,0,0,0,0,0,0,0,0,0,0],"sum_hessian":[1.1827759E2,1.1111168E2,7.165911E0,8.305656E0,1.0280602E2,5.770132E0,1.3957791E0,3.5990791E0,4.706577E0,2.3330688E1,7.9475334E1,3.587882E0,1.9742805E1,4.17998E0,7.529536E1,1.5603391E0,2.027543E0,2.1226337E0,1.7620173E1,1.0020642E0,3.1779156E0,1.0524553E0,1.0701784E0],"tree_param":{"num_deleted":"0","num_feature":"9","num_nodes":"23","size_leaf_vector":"1"}},{"base_weights":[-2.4127856E-2,6.592338E-1,-5.13462E-2,-4.9673356E-2,1.4137774E0,-4.8678897E-2,3.0906063E-1],"categories":[],"categories_nodes":[],"categories_segments":[],"categories_sizes":[],"default_left":[0,0,0,0,0,0,0],"id":58,"left_children":[1,3,-1,-1,5,-1,-1],"loss_changes":[4.0318054E1,4.4598465E1,0E0,0E0,9.937621E1,0E0,0E0],"parents":[2147483647,0,0,1,1,4,4],"right_children":[2,4,-1,-1,6,-1,-1],"split_conditions":[1.12E2,6.971184E1,-5.13462E-2,-4.9673356E-2,3.1E1,-4.8678897E-2,3.0906063E-1],"split_indices":[7,4,0,0,1,0,0],"split_type":[0,0,0,0,0,0,0],"sum_hessian":[1.185589E2,4.932653E1,6.923237E1,1.9616129E1,2.9710403E1,1.4258782E1,1.5451621E1],"tree_param":{"num_deleted":"0","num_feature":"9","num_nodes":"7","size_leaf_vector":"1"}},{"base_weights":[-3.4339312E-3,-5.055097E-1,1.8474483E0,-5.155132E-2,1.2680845E-4,-4.5992818E-2,2.8085904E0,2.1082604E-2,2.9510567E-1],"categories":[],"categories_nodes":[],"categories_segments":[],"categories_sizes":[],"default_left":[0,0,0,0,0,0,0,0,0],"id":59,"left_children":[1,3,5,-1,-1,-1,7,-1,-1],"loss_changes":[1.144222E2,4.916458E-1,5.9559746E1,0E0,0E0,0E0,6.294327E0,0E0,0E0],"parents":[2147483647,0,0,1,1,2,2,6,6],"right_children":[2,4,6,-1,-1,-1,8,-1,-1],"split_conditions":[3.3E0,3.0294118E0,8.9901474E1,-5.155132E-2,1.2680845E-4,-4.5992818E-2,8.1E1,2.1082604E-2,2.9510567E-1],"split_indices":[8,8,4,0,0,0,0,0,0],"split_type":[0,0,0,0,0,0,0,0,0],"sum_hessian":[1.2112458E2,9.585072E1,2.5273865E1,9.39784E1,1.872319E0,7.5853896E0,1.7688475E1,1.0485628E0,1.6639912E1],"tree_param":{"num_deleted":"0","num_feature":"9","num_nodes":"9","size_leaf_vector":"1"}},{"base_weights":[-3.2343343E-2,2.991993E-1,-4.6963242E-1,4.2175785E-1,-5.15876E-2,2.1411145E-1,-4.1248742E-2],"categories":[],"categories_nodes":[],"categories_segments":[],"categories_sizes":[],"default_left":[0,0,0,0,0,0,0],"id":60,"left_children":[1,-1,3,5,-1,-1,-1],"loss_changes":[1.6229485E2,0E0,4.6344624E0,9.252451E0,0E0,0E0,0E0],"parents":[2147483647,0,0,2,2,3,3],"right_children":[2,-1,4,6,-1,-1,-1],"split_conditions":[1.5E1,2.991993E-1,1.6E1,4E1,-5.15876E-2,2.1411145E-1,-4.1248742E-2],"split_indices":[2,0,2,1,0,0,0],"split_type":[0,0,0,0,0,0,0],"sum_hessian":[1.20654884E2,1.45036955E1,1.0615119E2,4.8348246E0,1.0131636E2,1.0677311E0,3.7670934E0],"tree_param":{"num_deleted":"0","num_feature":"9","num_nodes":"7","size_leaf_vector":"1"}},{"base_weights":[6.437604E-4,-2.860182E-1,1.9421934E0,-5.1424373E-2,3.352358E-1,-4.2931322E-2,2.9777473E-1,-4.915415E-2,1.4471077E0,-4.2388182E-2,2.4593647E0,3.003167E-1,-2.9444126E-2],"categories":[],"categories_nodes":[],"categories_segments":[],"categories_sizes":[],"default_left":[0,0,0,0,0,0,0,0,0,0,0,0,0],"id":61,"left_children":[1,3,5,-1,7,-1,-1,-1,9,-1,11,-1,-1],"loss_changes":[6.8311714E1,1.5336263E1,4.005645E1,0E0,2.7681627E1,0E0,0E0,0E0,2.5219727E1,0E0,1.3509758E1,0E0,0E0],"parents":[2147483647,0,0,1,1,2,2,4,4,8,8,10,10],"right_children":[2,4,6,-1,8,-1,-1,-1,10,-1,12,-1,-1],"split_conditions":[3.2476482E1,9.009878E1,8.389242E1,-5.1424373E-2,6.5003433E0,-4.2931322E-2,2.9777473E-1,-4.915415E-2,4.6E1,-4.2388182E-2,6.9E1,3.003167E-1,-2.9444126E-2],"split_indices":[3,4,4,0,5,0,0,0,2,0,0,0,0],"split_type":[0,0,0,0,0,0,0,0,0,0,0,0,0],"sum_hessian":[1.2073923E2,1.05948975E2,1.4790253E1,7.761015E1,2.8338825E1,4.6733375E0,1.0116915E1,1.6573124E1,1.1765701E1,4.3347974E0,7.4309044E0,6.129869E0,1.301035E0],"tree_param":{"num_deleted":"0","num_feature":"9","num_nodes":"13","size_leaf_vector":"1"}},{"base_weights":[-3.8213E-2,6.239749E-1,-4.8591247E-1,-4.971824E-2,1.4724021E0,5.8086287E-2,-5.135233E-2,-4.736396E-2,2.4976897E0,-4.2556208E-2,3.4051716E-1],"categories":[],"categories_nodes":[],"categories_segments":[],"categories_sizes":[],"default_left":[0,0,0,0,0,0,0,0,0,0,0],"id":62,"left_children":[1,3,5,-1,7,-1,-1,-1,9,-1,-1],"loss_changes":[3.575878E1,4.7037186E1,2.4165497E0,0E0,5.697554E1,0E0,0E0,0E0,5.0454918E1,0E0,0E0],"parents":[2147483647,0,0,1,1,2,2,4,4,8,8],"right_children":[2,4,6,-1,8,-1,-1,-1,10,-1,-1],"split_conditions":[6.740461E1,9.131256E1,5.515615E0,-4.971824E-2,5.5E1,5.8086287E-2,-5.135233E-2,-4.736396E-2,2.4938963E1,-4.2556208E-2,3.4051716E-1],"split_indices":[4,6,5,0,1,0,0,0,4,0,0],"split_type":[0,0,0,0,0,0,0,0,0,0,0],"sum_hessian":[1.1859604E2,4.767971E1,7.091633E1,2.0717064E1,2.6962645E1,1.2836479E0,6.963268E1,9.489393E0,1.7473251E1,4.265131E0,1.3208121E1],"tree_param":{"num_deleted":"0","num_feature":"9","num_nodes":"11","size_leaf_vector":"1"}},{"base_weights":[2.9328326E-2,1.0531632E0,-4.9021918E-1,2.1737819E0,-4.9254674E-2,1.2032909E-1,-5.14274E-2,-4.174121E-2,2.7013142E0,6.918543E-2,-3.3862736E-2,2.9899207E-1,-3.2570776E-2],"categories":[],"categories_nodes":[],"categories_segments":[],"categories_sizes":[],"default_left":[0,0,0,0,0,0,0,0,0,0,0,0,0],"id":63,"left_children":[1,3,5,7,-1,9,-1,-1,11,-1,-1,-1,-1],"loss_changes":[6.544947E1,7.279942E1,1.2612E0,3.4194946E1,0E0,1.2587808E0,0E0,0E0,1.8649536E1,0E0,0E0,0E0,0E0],"parents":[2147483647,0,0,1,1,2,2,3,3,5,5,8,8],"right_children":[2,4,6,8,-1,10,-1,-1,12,-1,-1,-1,-1],"split_conditions":[2.9E1,2.4982874E1,3.1E1,3.5E1,-4.9254674E-2,2.5310423E1,-5.14274E-2,-4.174121E-2,4.1E1,6.918543E-2,-3.3862736E-2,2.9899207E-1,-3.2570776E-2],"split_indices":[1,3,1,2,0,3,0,0,0,0,0,0,0],"split_type":[0,0,0,0,0,0,0,0,0,0,0,0,0],"sum_hessian":[1.2107073E2,4.0410194E1,8.066054E1,2.3190826E1,1.7219366E1,2.9057558E0,7.775478E1,3.9580362E0,1.923279E1,1.0681581E0,1.8375975E0,1.7569878E1,1.6629134E0],"tree_param":{"num_deleted":"0","num_feature":"9","num_nodes":"13","size_leaf_vector":"1"}},{"base_weights":[-5.104252E-2,-5.15484E-2,1.8058275E0,-4.302689E-2,2.3603275E0,-3.9736748E-2,2.898629E0,3.123319E-1,-2.6849395E-2],"categories":[],"categories_nodes":[],"categories_segments":[],"categories_sizes":[],"default_left":[0,0,0,0,0,0,0,0,0],"id":64,"left_children":[1,-1,3,-1,5,-1,7,-1,-1],"loss_changes":[1.0480206E2,0E0,3.1170334E1,0E0,3.030941E1,0E0,1.2619064E1,0E0,0E0],"parents":[2147483647,0,0,2,2,4,4,6,6],"right_children":[2,-1,4,-1,6,-1,8,-1,-1],"split_conditions":[1.8244824E2,-5.15484E-2,5.9E1,-4.302689E-2,8.0031E1,-3.9736748E-2,8.50864E1,3.123319E-1,-2.6849395E-2],"split_indices":[6,0,0,0,4,0,4,0,0],"split_type":[0,0,0,0,0,0,0,0,0],"sum_hessian":[1.1944328E2,9.612326E1,2.3320019E1,4.678276E0,1.8641743E1,3.0873249E0,1.5554419E1,1.4536934E1,1.0174841E0],"tree_param":{"num_deleted":"0","num_feature":"9","num_nodes":"9","size_leaf_vector":"1"}},{"base_weights":[3.1666413E-2,-5.152374E-2,1.6220484E0,2.2007177E0,-4.5381572E-2,2.8780183E-1,-4.3433663E-2],"categories":[],"categories_nodes":[],"categories_segments":[],"categories_sizes":[],"default_left":[0,0,0,0,0,0,0],"id":65,"left_children":[1,-1,3,5,-1,-1,-1],"loss_changes":[1.0788176E2,0E0,3.9118256E1,4.584459E1,0E0,0E0,0E0],"parents":[2147483647,0,0,2,2,3,3],"right_children":[2,-1,4,6,-1,-1,-1],"split_conditions":[2.9333334E0,-5.152374E-2,2.7022692E1,5.9870655E1,-4.5381572E-2,2.8780183E-1,-4.3433663E-2],"split_indices":[8,0,3,6,0,0,0],"split_type":[0,0,0,0,0,0,0],"sum_hessian":[1.2207169E2,9.1338165E1,3.0733526E1,2.3986803E1,6.7467227E0,1.9008701E1,4.9781027E0],"tree_param":{"num_deleted":"0","num_feature":"9","num_nodes":"7","size_leaf_vector":"1"}},{"base_weights":[2.6891239E-2,-5.1408935E-2,1.7237861E0,-4.3733027E-2,2.195289E-1],"categories":[],"categories_nodes":[],"categories_segments":[],"categories_sizes":[],"default_left":[0,0,0,0,0],"id":66,"left_children":[1,-1,3,-1,-1],"loss_changes":[1.14502975E2,0E0,3.1681099E1,0E0,0E0],"parents":[2147483647,0,0,2,2],"right_children":[2,-1,4,-1,-1],"split_conditions":[1.95E2,-5.1408935E-2,8.404404E1,-4.3733027E-2,2.195289E-1],"split_indices":[2,0,4,0,0],"split_type":[0,0,0,0,0],"sum_hessian":[1.22767296E2,9.3618256E1,2.9149036E1,5.2335796E0,2.3915457E1],"tree_param":{"num_deleted":"0","num_feature":"9","num_nodes":"5","size_leaf_vector":"1"}},{"base_weights":[3.0970387E-2,-5.02503E-1,1.4233822E0,-5.1363803E-2,8.721298E-3,-4.7082465E-2,2.1967175E0,2.2825933E-1,1.7912777E-2],"categories":[],"categories_nodes":[],"categories_segments":[],"categories_sizes":[],"default_left":[0,0,0,0,0,0,0,0,0],"id":67,"left_children":[1,3,5,-1,-1,-1,7,-1,-1],"loss_changes":[9.0927475E1,6.2622833E-1,5.0695557E1,0E0,0E0,0E0,3.7927322E0,0E0,0E0],"parents":[2147483647,0,0,1,1,2,2,6,6],"right_children":[2,4,6,-1,-1,-1,8,-1,-1],"split_conditions":[2.04E2,1.98E2,6E1,-5.1363803E-2,8.721298E-3,-4.7082465E-2,1.625E0,2.2825933E-1,1.7912777E-2],"split_indices":[7,7,0,0,0,0,8,0,0],"split_type":[0,0,0,0,0,0,0,0,0],"sum_hessian":[1.2044649E2,8.754469E1,3.29018E1,8.604891E1,1.4957763E0,9.651819E0,2.3249979E1,2.2174795E1,1.0751834E0],"tree_param":{"num_deleted":"0","num_feature":"9","num_nodes":"9","size_leaf_vector":"1"}},{"base_weights":[-2.0318193E-2,5.531035E-1,-5.1169395E-2,-4.9808733E-2,1.2837584E0,1.9716085E0,-4.6864912E-2,-3.5228703E-2,2.2103953E0,-2.7154207E-2,2.3499794E0,2.408674E-1,6.5793656E-2],"categories":[],"categories_nodes":[],"categories_segments":[],"categories_sizes":[],"default_left":[0,0,0,0,0,0,0,0,0,0,0,0,0],"id":68,"left_children":[1,3,-1,-1,5,7,-1,-1,9,-1,11,-1,-1],"loss_changes":[3.3825535E1,4.3202297E1,0E0,0E0,4.066831E1,1.4024582E1,0E0,0E0,8.184708E0,0E0,4.7374725E-1,0E0,0E0],"parents":[2147483647,0,0,1,1,4,4,5,5,8,8,10,10],"right_children":[2,4,-1,-1,6,8,-1,-1,10,-1,12,-1,-1],"split_conditions":[7.582271E1,5.9870655E1,-5.1169395E-2,-4.9808733E-2,1.55E2,5.5E1,-4.6864912E-2,-3.5228703E-2,5.7682728E1,-2.7154207E-2,6.909048E1,2.408674E-1,6.5793656E-2],"split_indices":[6,6,0,0,7,1,0,0,4,0,4,0,0],"split_type":[0,0,0,0,0,0,0,0,0,0,0,0,0],"sum_hessian":[1.1804408E2,5.4416245E1,6.3627842E1,2.244418E1,3.1972063E1,2.2870079E1,9.101985E0,2.0867097E0,2.078337E1,1.0562817E0,1.9727087E1,1.8656391E1,1.0706955E0],"tree_param":{"num_deleted":"0","num_feature":"9","num_nodes":"13","size_leaf_vector":"1"}},{"base_weights":[-2.1470053E-2,1.9561557E0,-5.142348E-2,-3.4201004E-2,2.1653025E-1],"categories":[],"categories_nodes":[],"categories_segments":[],"categories_sizes":[],"default_left":[0,0,0,0,0],"id":69,"left_children":[1,3,-1,-1,-1],"loss_changes":[1.1817724E2,1.236834E1,0E0,0E0,0E0],"parents":[2147483647,0,0,1,1],"right_children":[2,4,-1,-1,-1],"split_conditions":[2.0396597E1,2.6E1,-5.142348E-2,-3.4201004E-2,2.1653025E-1],"split_indices":[4,2,0,0,0],"split_type":[0,0,0,0,0],"sum_hessian":[1.19236855E2,2.3191607E1,9.604524E1,1.8815314E0,2.1310076E1],"tree_param":{"num_deleted":"0","num_feature":"9","num_nodes":"5","size_leaf_vector":"1"}},{"base_weights":[-7.224018E-2,-5.019656E-1,1.0337243E0,-5.1342994E-2,-5.856028E-4,-4.833292E-2,2.069957E0,2.3143125E-1,-3.288968E-2],"categories":[],"categories_nodes":[],"categories_segments":[],"categories_sizes":[],"default_left":[0,0,0,0,0,0,0,0,0],"id":70,"left_children":[1,3,5,-1,-1,-1,7,-1,-1],"loss_changes":[5.641906E1,4.8259926E-1,5.3254337E1,0E0,0E0,0E0,1.2448883E1,0E0,0E0],"parents":[2147483647,0,0,1,1,2,2,6,6],"right_children":[2,4,6,-1,-1,-1,8,-1,-1],"split_conditions":[9.0975975E1,9.071037E1,1.2825687E2,-5.1342994E-2,-5.856028E-4,-4.833292E-2,3.1E1,2.3143125E-1,-3.288968E-2],"split_indices":[4,4,6,0,0,0,1,0,0],"split_type":[0,0,0,0,0,0,0,0,0],"sum_hessian":[1.1661993E2,8.437999E1,3.2239937E1,8.244001E1,1.9399836E0,1.3300891E1,1.8939045E1,1.7220182E1,1.7188631E0],"tree_param":{"num_deleted":"0","num_feature":"9","num_nodes":"9","size_leaf_vector":"1"}},{"base_weights":[4.3782197E-2,-5.132514E-2,1.0877311E0,-4.886013E-2,1.9819655E0,-3.6123995E-2,2.206864E0,2.3486319E-1,-2.8979948E-2],"categories":[],"categories_nodes":[],"categories_segments":[],"categories_sizes":[],"default_left":[0,0,0,0,0,0,0,0,0],"id":71,"left_children":[1,-1,3,-1,5,-1,7,-1,-1],"loss_changes":[7.182184E1,0E0,6.152394E1,0E0,1.5345955E1,0E0,9.646278E0,0E0,0E0],"parents":[2147483647,0,0,2,2,4,4,6,6],"right_children":[2,-1,4,-1,6,-1,8,-1,-1],"split_conditions":[2.097561E0,-5.132514E-2,1.1196846E2,-4.886013E-2,8.4E1,-3.6123995E-2,3.6E1,2.3486319E-1,-2.8979948E-2],"split_indices":[8,0,6,0,7,0,2,0,0],"split_type":[0,0,0,0,0,0,0,0,0],"sum_hessian":[1.2154819E2,7.958913E1,4.195906E1,1.5351485E1,2.6607576E1,2.2770355E0,2.433054E1,2.3079323E1,1.2512175E0],"tree_param":{"num_deleted":"0","num_feature":"9","num_nodes":"9","size_leaf_vector":"1"}},{"base_weights":[-1.8850712E-2,-5.1382583E-2,1.3683475E0,1.8377389E0,-4.5017026E-2,2.0820518E0,-3.715272E-2,-2.9935777E-2,2.2446017E-1],"categories":[],"categories_nodes":[],"categories_segments":[],"categories_sizes":[],"default_left":[0,0,0,0,0,0,0,0,0],"id":72,"left_children":[1,-1,3,5,-1,7,-1,-1,-1],"loss_changes":[8.3213615E1,0E0,2.8035458E1,1.4554504E1,0E0,9.629829E0,0E0,0E0,0E0],"parents":[2147483647,0,0,2,2,3,3,5,5],"right_children":[2,-1,4,6,-1,8,-1,-1,-1],"split_conditions":[1E2,-5.1382583E-2,2.5990696E1,1.0000757E2,-4.5017026E-2,5.827601E1,-3.715272E-2,-2.9935777E-2,2.2446017E-1],"split_indices":[0,0,3,6,0,6,0,0,0],"split_type":[0,0,0,0,0,0,0,0,0],"sum_hessian":[1.1916761E2,8.829286E1,3.0874748E1,2.4532032E1,6.342716E0,2.2141127E1,2.390906E0,1.3609623E0,2.0780165E1],"tree_param":{"num_deleted":"0","num_feature":"9","num_nodes":"9","size_leaf_vector":"1"}},{"base_weights":[-1.3252464E-2,-5.1403355E-2,1.7763437E0,2.2202797E-1,-4.2120114E-2],"categories":[],"categories_nodes":[],"categories_segments":[],"categories_sizes":[],"default_left":[0,0,0,0,0],"id":73,"left_children":[1,-1,3,-1,-1],"loss_changes":[1.0721028E2,0E0,2.645398E1,0E0,0E0],"parents":[2147483647,0,0,2,2],"right_children":[2,-1,4,-1,-1],"split_conditions":[1.2E2,-5.1403355E-2,8.404404E1,2.2202797E-1,-4.2120114E-2],"split_indices":[1,0,4,0,0],"split_type":[0,0,0,0,0],"sum_hessian":[1.17609314E2,9.245146E1,2.5157846E1,2.092113E1,4.2367167E0],"tree_param":{"num_deleted":"0","num_feature":"9","num_nodes":"5","size_leaf_vector":"1"}},{"base_weights":[2.8707204E-2,-5.104812E-2,5.008159E-1,-4.2428434E-1,1.0776236E0,-4.978125E-2,1.4011319E-1,-4.7021303E-2,1.571984E0,-3.2097667E-2,6.0739644E-2,1.9254068E0,-4.246804E-2,-3.4396555E-2,2.1144238E0,-2.8634042E-2,2.2527683E-1],"categories":[],"categories_nodes":[],"categories_segments":[],"categories_sizes":[],"default_left":[0,0,0,0,0,0,0,0,0,0,0,0,0,0,0,0,0],"id":74,"left_children":[1,-1,3,5,7,-1,9,-1,11,-1,-1,13,-1,-1,15,-1,-1],"loss_changes":[3.0766016E1,0E0,3.4825943E1,1.1260524E0,3.1312263E1,0E0,9.952154E-1,0E0,2.234983E1,0E0,0E0,1.1925072E1,0E0,0E0,8.695244E0,0E0,0E0],"parents":[2147483647,0,0,2,2,3,3,4,4,6,6,8,8,11,11,14,14],"right_children":[2,-1,4,6,8,-1,10,-1,12,-1,-1,14,-1,-1,16,-1,-1],"split_conditions":[1.0166667E0,-5.104812E-2,3.7E1,3.5E1,3.5E1,-4.978125E-2,2.5269312E1,-4.7021303E-2,4.6E1,-3.2097667E-2,6.0739644E-2,2.3093481E1,-4.246804E-2,-3.4396555E-2,5.971332E0,-2.8634042E-2,2.2527683E-1],"split_indices":[8,0,1,1,2,0,3,0,2,0,0,3,0,0,5,0,0],"split_type":[0,0,0,0,0,0,0,0,0,0,0,0,0,0,0,0,0],"sum_hessian":[1.1885738E2,5.5448822E1,6.340856E1,2.445361E1,3.8954952E1,2.1739431E1,2.7141788E0,9.441758E0,2.9513193E1,1.5237374E0,1.1904414E0,2.510511E1,4.408083E0,1.8672153E0,2.3237894E1,1.2078397E0,2.2030054E1],"tree_param":{"num_deleted":"0","num_feature":"9","num_nodes":"17","size_leaf_vector":"1"}},{"base_weights":[-1.4219832E-2,1.8831992E0,-5.1468577E-2,2.4067678E0,-4.2519916E-2,2.4593487E-1,7.03381E-2],"categories":[],"categories_nodes":[],"categories_segments":[],"categories_sizes":[],"default_left":[0,0,0,0,0,0,0],"id":75,"left_children":[1,3,-1,5,-1,-1,-1],"loss_changes":[1.1449898E2,3.1440758E1,0E0,1.2097931E-1,0E0,0E0,0E0],"parents":[2147483647,0,0,1,1,3,3],"right_children":[2,4,-1,6,-1,-1,-1],"split_conditions":[3.413308E1,2.6E1,-5.1468577E-2,2.4938963E1,-4.2519916E-2,2.4593487E-1,7.03381E-2],"split_indices":[4,2,0,4,0,0,0],"split_type":[0,0,0,0,0,0,0],"sum_hessian":[1.1855612E2,2.4167368E1,9.4388756E1,1.9664616E1,4.502753E0,1.8645267E1,1.0193479E0],"tree_param":{"num_deleted":"0","num_feature":"9","num_nodes":"7","size_leaf_vector":"1"}},{"base_weights":[-6.2108412E-3,1.1607525E0,-5.1337313E-2,-4.843018E-2,2.0760312E0,2.2352E0,-3.0027999E-2,2.2801296E-1,6.739544E-2],"categories":[],"categories_nodes":[],"categories_segments":[],"categories_sizes":[],"default_left":[0,0,0,0,0,0,0,0,0],"id":76,"left_children":[1,3,-1,-1,5,7,-1,-1,-1],"loss_changes":[7.117306E1,5.5861336E1,0E0,0E0,9.596642E0,2.2972107E-2,0E0,0E0,0E0],"parents":[2147483647,0,0,1,1,4,4,5,5],"right_children":[2,4,-1,-1,6,8,-1,-1,-1],"split_conditions":[5.521607E1,5.5E1,-5.1337313E-2,-4.843018E-2,6.971184E1,2.9875702E1,-3.0027999E-2,2.2801296E-1,6.739544E-2],"split_indices":[6,1,0,0,4,3,0,0,0],"split_type":[0,0,0,0,0,0,0,0,0],"sum_hessian":[1.1825045E2,3.543257E1,8.281788E1,1.2834914E1,2.2597658E1,2.1234709E1,1.3629495E0,2.0193134E1,1.0415758E0],"tree_param":{"num_deleted":"0","num_feature":"9","num_nodes":"9","size_leaf_vector":"1"}},{"base_weights":[3.0477212E-3,-5.12092E-2,6.120059E-1,1.8767685E0,-4.4200557E-1,2.3737155E-1,-4.2338975E-2,2.9490128E-2,-5.0182056E-2],"categories":[],"categories_nodes":[],"categories_segments":[],"categories_sizes":[],"default_left":[0,0,0,0,0,0,0,0,0],"id":77,"left_children":[1,-1,3,5,7,-1,-1,-1,-1],"loss_changes":[3.822503E1,0E0,7.526722E1,3.0235931E1,1.5261555E0,0E0,0E0,0E0,0E0],"parents":[2147483647,0,0,2,2,3,3,4,4],"right_children":[2,-1,4,6,8,-1,-1,-1,-1],"split_conditions":[6E1,-5.12092E-2,2.5E1,7.51464E1,2.6E1,2.3737155E-1,-4.2338975E-2,2.9490128E-2,-5.0182056E-2],"split_indices":[0,0,2,4,2,0,0,0,0],"split_type":[0,0,0,0,0,0,0,0,0],"sum_hessian":[1.1985369E2,6.501458E1,5.483911E1,2.4572594E1,3.0266518E1,2.0180614E1,4.3919806E0,1.9772336E0,2.8289284E1],"tree_param":{"num_deleted":"0","num_feature":"9","num_nodes":"9","size_leaf_vector":"1"}},{"base_weights":[-1.249344E-2,6.990166E-1,-5.1241677E-2,-4.9340215E-2,1.4156647E0,2.2443879E0,-4.6941716E-2,8.4090166E-2,2.3087172E-1],"categories":[],"categories_nodes":[],"categories_segments":[],"categories_sizes":[],"default_left":[0,0,0,0,0,0,0,0,0],"id":78,"left_children":[1,3,-1,-1,5,7,-1,-1,-1],"loss_changes":[4.259101E1,4.2930077E1,0E0,0E0,4.967983E1,2.6306152E-2,0E0,0E0,0E0],"parents":[2147483647,0,0,1,1,4,4,5,5],"right_children":[2,4,-1,-1,6,8,-1,-1,-1],"split_conditions":[1.05E2,2.5E1,-5.1241677E-2,-4.9340215E-2,1.0082596E2,8.979946E1,-4.6941716E-2,8.4090166E-2,2.3087172E-1],"split_indices":[7,2,0,0,6,6,0,0,0],"split_type":[0,0,0,0,0,0,0,0,0],"sum_hessian":[1.1773142E2,4.841999E1,6.931143E1,1.829341E1,3.0126581E1,2.0794334E1,9.332248E0,1.528065E0,1.926627E1],"tree_param":{"num_deleted":"0","num_feature":"9","num_nodes":"9","size_leaf_vector":"1"}},{"base_weights":[5.836397E-2,-1.4456566E-1,2.27462E0,1.3427719E0,-2.9655007E-1,1.4621325E-2,2.5625777E-1,2.7122644E-1,-4.2296607E-2,8.7531656E-2,-5.1153857E-2,8.2561404E-1,-4.9550813E-2,4.4828954E-1,2.5546438E-1,9.633431E-2,-4.3894142E-2],"categories":[],"categories_nodes":[],"categories_segments":[],"categories_sizes":[],"default_left":[0,0,0,0,0,0,0,0,0,0,0,0,0,0,0,0,0],"id":79,"left_children":[1,3,5,7,9,-1,-1,-1,-1,11,-1,13,-1,15,-1,-1,-1],"loss_changes":[5.3364746E1,2.5031773E1,5.724617E0,2.6015541E1,8.276412E0,0E0,0E0,0E0,0E0,1.617184E1,0E0,9.645805E0,0E0,7.1815586E0,0E0,0E0,0E0],"parents":[2147483647,0,0,1,1,2,2,3,3,4,4,9,9,11,11,13,13],"right_children":[2,4,6,8,10,-1,-1,-1,-1,12,-1,14,-1,16,-1,-1,-1],"split_conditions":[8.016211E0,5.505394E0,2.4513248E1,7.2850174E1,7.088787E1,1.4621325E-2,2.5625777E-1,2.7122644E-1,-4.2296607E-2,1.15E2,-5.1153857E-2,3.0041323E1,-4.9550813E-2,5.8E1,2.5546438E-1,9.633431E-2,-4.3894142E-2],"split_indices":[5,5,3,6,6,0,0,0,0,7,0,3,0,1,0,0,0],"split_type":[0,0,0,0,0,0,0,0,0,0,0,0,0,0,0,0,0],"sum_hessian":[1.1692467E2,1.07972984E2,8.951685E0,9.283975E0,9.868901E1,1.2464497E0,7.7052355E0,4.9267635E0,4.3572106E0,3.5629314E1,6.3059696E1,1.5540374E1,2.008894E1,1.379022E1,1.750154E0,8.67085E0,5.1193705E0],"tree_param":{"num_deleted":"0","num_feature":"9","num_nodes":"17","size_leaf_vector":"1"}},{"base_weights":[-2.9683908E-2,9.7842157E-1,-5.130716E-2,1.6226914E0,-4.7794145E-2,-4.091507E-2,1.9607254E0,2.0802317E0,-2.6824031E-2,1.4856504E-2,2.1881812E0,2.2357512E-1,6.651684E-2],"categories":[],"categories_nodes":[],"categories_segments":[],"categories_sizes":[],"default_left":[0,0,0,0,0,0,0,0,0,0,0,0,0],"id":80,"left_children":[1,3,-1,5,-1,-1,7,9,-1,-1,11,-1,-1],"loss_changes":[5.7563026E1,3.6706497E1,0E0,1.9193298E1,0E0,0E0,6.7192535E0,4.276413E0,0E0,0E0,2.1713257E-2,0E0,0E0],"parents":[2147483647,0,0,1,1,3,3,6,6,7,7,10,10],"right_children":[2,4,-1,6,-1,-1,8,10,-1,-1,12,-1,-1],"split_conditions":[6.0745834E1,1.14E2,-5.130716E-2,2.6904358E1,-4.7794145E-2,-4.091507E-2,7.1995044E0,6.2206435E0,-2.6824031E-2,1.4856504E-2,2.9875702E1,2.2357512E-1,6.651684E-2],"split_indices":[6,7,0,3,0,0,5,5,0,0,3,0,0],"split_type":[0,0,0,0,0,0,0,0,0,0,0,0,0],"sum_hessian":[1.1609491E2,3.729405E1,7.880086E1,2.577668E1,1.1517366E1,3.6467216E0,2.212996E1,2.106717E1,1.062789E0,1.2407764E0,1.9826393E1,1.8772085E1,1.0543076E0],"tree_param":{"num_deleted":"0","num_feature":"9","num_nodes":"13","size_leaf_vector":"1"}},{"base_weights":[-1.3965341E-2,2.2405429E-1,-5.143354E-2],"categories":[],"categories_nodes":[],"categories_segments":[],"categories_sizes":[],"default_left":[0,0,0],"id":81,"left_children":[1,-1,-1],"loss_changes":[1.3533145E2,0E0,0E0],"parents":[2147483647,0,0],"right_children":[2,-1,-1],"split_conditions":[3.2678917E1,2.2405429E-1,-5.143354E-2],"split_indices":[6,0,0],"split_type":[0,0,0],"sum_hessian":[1.1794374E2,2.0790518E1,9.715323E1],"tree_param":{"num_deleted":"0","num_feature":"9","num_nodes":"3","size_leaf_vector":"1"}},{"base_weights":[-1.585266E-2,2.3000968E-1,-4.4648018E-1,6.3392735E-1,-5.1427316E-2,2.783328E-1,-4.21434E-2],"categories":[],"categories_nodes":[],"categories_segments":[],"categories_sizes":[],"default_left":[0,0,0,0,0,0,0],"id":82,"left_children":[1,-1,3,5,-1,-1,-1],"loss_changes":[1.206951E2,0E0,7.7980194E0,1.5852135E1,0E0,0E0,0E0],"parents":[2147483647,0,0,2,2,3,3],"right_children":[2,-1,4,6,-1,-1,-1],"split_conditions":[1.5E1,2.3000968E-1,1.6E1,2.5E1,-5.1427316E-2,2.783328E-1,-4.21434E-2],"split_indices":[2,0,2,1,0,0,0],"split_type":[0,0,0,0,0,0,0],"sum_hessian":[1.1899074E2,1.7975544E1,1.010152E2,5.471161E0,9.554404E1,1.2625227E0,4.208638E0],"tree_param":{"num_deleted":"0","num_feature":"9","num_nodes":"7","size_leaf_vector":"1"}},{"base_weights":[4.912521E-3,-5.1307887E-2,9.7115296E-1,-4.9131658E-2,1.9378392E0,2.4861167E-1,-4.28603E-2],"categories":[],"categories_nodes":[],"categories_segments":[],"categories_sizes":[],"default_left":[0,0,0,0,0,0,0],"id":83,"left_children":[1,-1,3,-1,5,-1,-1],"loss_changes":[6.1048546E1,0E0,6.113079E1,0E0,3.4578506E1,0E0,0E0],"parents":[2147483647,0,0,2,2,4,4],"right_children":[2,-1,4,-1,6,-1,-1],"split_conditions":[9.002575E1,-5.1307887E-2,3.1E1,-4.9131658E-2,7.1E1,2.4861167E-1,-4.28603E-2],"split_indices":[4,0,1,0,1,0,0],"split_type":[0,0,0,0,0,0,0],"sum_hessian":[1.1997853E2,7.841179E1,4.1566746E1,1.6737242E1,2.4829502E1,2.0117853E1,4.711648E0],"tree_param":{"num_deleted":"0","num_feature":"9","num_nodes":"7","size_leaf_vector":"1"}},{"base_weights":[-5.191111E-2,4.8320934E-1,-4.9670264E-1,-2.019151E-1,2.0813024E0,9.533825E-3,-5.11772E-2,-5.0011154E-2,4.1855878E-1,1.3327626E0,2.3944771E-1,-4.5246165E-2,1.4066523E0,2.1564354E-1,1.8313739E-1,-3.3790343E-2,2.1231115E-1,6.8421334E-2,-2.9413482E-2,-2.721E-2,2.2746203E-2],"categories":[],"categories_nodes":[],"categories_segments":[],"categories_sizes":[],"default_left":[0,0,0,0,0,0,0,0,0,0,0,0,0,0,0,0,0,0,0,0,0],"id":84,"left_children":[1,3,5,7,9,-1,-1,-1,11,13,-1,-1,15,17,-1,19,-1,-1,-1,-1,-1],"loss_changes":[2.8094475E1,5.913568E1,6.2335205E-1,7.3228135E0,6.017456E-1,0E0,0E0,0E0,1.1845513E1,3.5197124E0,0E0,0E0,6.620182E0,9.900566E-1,0E0,2.5440004E-1,0E0,0E0,0E0,0E0,0E0],"parents":[2147483647,0,0,1,1,2,2,3,3,4,4,8,8,9,9,12,12,13,13,15,15],"right_children":[2,4,6,8,10,-1,-1,-1,12,14,-1,-1,16,18,-1,20,-1,-1,-1,-1,-1],"split_conditions":[2.5E1,1.2045093E2,4.9547396E0,9.1957924E1,1.4830037E2,9.533825E-3,-5.11772E-2,-5.0011154E-2,5.7E1,2.300446E1,2.3944771E-1,-4.5246165E-2,2.3965635E1,5.568366E0,1.8313739E-1,2.012574E1,2.1231115E-1,6.8421334E-2,-2.9413482E-2,-2.721E-2,2.2746203E-2],"split_indices":[2,6,5,6,6,0,0,0,1,3,0,0,3,5,0,3,0,0,0,0,0],"split_type":[0,0,0,0,0,0,0,0,0,0,0,0,0,0,0,0,0,0,0,0,0],"sum_hessian":[1.1602718E2,5.262665E1,6.3400528E1,3.7446484E1,1.5180169E1,1.4414755E0,6.195905E1,2.5422535E1,1.2023951E1,6.027969E0,9.1522E0,6.6786757E0,5.3452744E0,2.3022828E0,3.725686E0,2.0920467E0,3.2532277E0,1.0213327E0,1.2809501E0,1.0723485E0,1.0196984E0],"tree_param":{"num_deleted":"0","num_feature":"9","num_nodes":"21","size_leaf_vector":"1"}},{"base_weights":[-3.914354E-2,7.652881E-1,-4.9948993E-1,1.6755294E0,-4.923094E-2,3.765008E-3,-5.125335E-2,1.9265052E0,-3.755484E-2,-3.182779E-2,2.108404E0,2.2137336E-1,8.3395433E-1,1.15116715E-1,1.5622838E-2],"categories":[],"categories_nodes":[],"categories_segments":[],"categories_sizes":[],"default_left":[0,0,0,0,0,0,0,0,0,0,0,0,0,0,0],"id":85,"left_children":[1,3,5,7,-1,-1,-1,9,-1,-1,11,-1,13,-1,-1],"loss_changes":[4.3812225E1,5.014042E1,5.461407E-1,1.3705536E1,0E0,0E0,0E0,9.912529E0,0E0,0E0,9.818802E-1,0E0,5.1082325E-1,0E0,0E0],"parents":[2147483647,0,0,1,1,2,2,3,3,7,7,10,10,12,12],"right_children":[2,4,6,8,-1,-1,-1,10,-1,-1,12,-1,14,-1,-1],"split_conditions":[3E1,2.4982874E1,3.1E1,4.1E1,-4.923094E-2,3.765008E-3,-5.125335E-2,1.7828037E1,-3.755484E-2,-3.182779E-2,1.1128185E2,